{"learner":{"attributes":{"scikit_learn":"{\"_estimator_type\": \"classifier\"}"},"feature_names":[],"feature_types":[],"gradient_booster":{"model":{"cats":{"enc":[],"feature_segments":[],"sorted_idx":[]},"gbtree_model_param":{"num_parallel_tree":"1","num_trees":"600"},"iteration_indptr":[0,1,2,3,4,5,6,7,8,9,10,11,12,13,14,15,16,17,18,19,20,21,22,23,24,25,26,27,28,29,30,31,32,33,34,35,36,37,38,39,40,41,42,43,44,45,46,47,48,49,50,51,52,53,54,55,56,57,58,59,60,61,62,63,64,65,66,67,68,69,70,71,72,73,74,75,76,77,78,79,80,81,82,83,84,85,86,87,88,89,90,91,92,93,94,95,96,97,98,99,100,101,102,103,104,105,106,107,108,109,110,111,112,113,114,115,116,117,118,119,120,121,122,123,124,125,126,127,128,129,130,131,132,133,134,135,136,137,138,139,140,141,142,143,144,145,146,147,148,149,150,151,152,153,154,155,156,157,158,159,160,161,162,163,164,165,166,167,168,169,170,171,172,173,174,175,176,177,178,179,180,181,182,183,184,185,186,187,188,189,190,191,192,193,194,195,196,197,198,199,200,201,202,203,204,205,206,207,208,209,210,211,212,213,214,215,216,217,218,219,220,221,222,223,224,225,226,227,228,229,230,231,232,233,234,235,236,237,238,239,240,241,242,243,244,245,246,247,248,249,250,251,252,253,254,255,256,257,258,259,260,261,262,263,264,265,266,267,268,269,270,271,272,273,274,275,276,277,278,279,280,281,282,283,284,285,286,287,288,289,290,291,292,293,294,295,296,297,298,299,300,301,302,303,304,305,306,307,308,309,310,311,312,313,314,315,316,317,318,319,320,321,322,323,324,325,326,327,328,329,330,331,332,333,334,335,336,337,338,339,340,341,342,343,344,345,346,347,348,349,350,351,352,353,354,355,356,357,358,359,360,361,362,363,364,365,366,367,368,369,370,371,372,373,374,375,376,377,378,379,380,381,382,383,384,385,386,387,388,389,390,391,392,393,394,395,396,397,398,399,400,401,402,403,404,405,406,407,408,409,410,411,412,413,414,415,416,417,418,419,420,421,422,423,424,425,426,427,428,429,430,431,432,433,434,435,436,437,438,439,440,441,442,443,444,445,446,447,448,449,450,451,452,453,454,455,456,457,458,459,460,461,462,463,464,465,466,467,468,469,470,471,472,473,474,475,476,477,478,479,480,481,482,483,484,485,486,487,488,489,490,491,492,493,494,495,496,497,498,499,500,501,502,503,504,505,506,507,508,509,510,511,512,513,514,515,516,517,518,519,520,521,522,523,524,525,526,527,528,529,530,531,532,533,534,535,536,537,538,539,540,541,542,543,544,545,546,547,548,549,550,551,552,553,554,555,556,557,558,559,560,561,562,563,564,565,566,567,568,569,570,571,572,573,574,575,576,577,578,579,580,581,582,583,584,585,586,587,588,589,590,591,592,593,594,595,596,597,598,599,600],"tree_info":[0,0,0,0,0,0,0,0,0,0,0,0,0,0,0,0,0,0,0,0,0,0,0,0,0,0,0,0,0,0,0,0,0,0,0,0,0,0,0,0,0,0,0,0,0,0,0,0,0,0,0,0,0,0,0,0,0,0,0,0,0,0,0,0,0,0,0,0,0,0,0,0,0,0,0,0,0,0,0,0,0,0,0,0,0,0,0,0,0,0,0,0,0,0,0,0,0,0,0,0,0,0,0,0,0,0,0,0,0,0,0,0,0,0,0,0,0,0,0,0,0,0,0,0,0,0,0,0,0,0,0,0,0,0,0,0,0,0,0,0,0,0,0,0,0,0,0,0,0,0,0,0,0,0,0,0,0,0,0,0,0,0,0,0,0,0,0,0,0,0,0,0,0,0,0,0,0,0,0,0,0,0,0,0,0,0,0,0,0,0,0,0,0,0,0,0,0,0,0,0,0,0,0,0,0,0,0,0,0,0,0,0,0,0,0,0,0,0,0,0,0,0,0,0,0,0,0,0,0,0,0,0,0,0,0,0,0,0,0,0,0,0,0,0,0,0,0,0,0,0,0,0,0,0,0,0,0,0,0,0,0,0,0,0,0,0,0,0,0,0,0,0,0,0,0,0,0,0,0,0,0,0,0,0,0,0,0,0,0,0,0,0,0,0,0,0,0,0,0,0,0,0,0,0,0,0,0,0,0,0,0,0,0,0,0,0,0,0,0,0,0,0,0,0,0,0,0,0,0,0,0,0,0,0,0,0,0,0,0,0,0,0,0,0,0,0,0,0,0,0,0,0,0,0,0,0,0,0,0,0,0,0,0,0,0,0,0,0,0,0,0,0,0,0,0,0,0,0,0,0,0,0,0,0,0,0,0,0,0,0,0,0,0,0,0,0,0,0,0,0,0,0,0,0,0,0,0,0,0,0,0,0,0,0,0,0,0,0,0,0,0,0,0,0,0,0,0,0,0,0,0,0,0,0,0,0,0,0,0,0,0,0,0,0,0,0,0,0,0,0,0,0,0,0,0,0,0,0,0,0,0,0,0,0,0,0,0,0,0,0,0,0,0,0,0,0,0,0,0,0,0,0,0,0,0,0,0,0,0,0,0,0,0,0,0,0,0,0,0,0,0,0,0,0,0,0,0,0,0,0,0,0,0,0,0,0,0,0,0,0,0,0,0,0,0,0,0,0,0,0,0,0,0,0,0,0,0,0,0,0,0,0,0,0,0,0,0,0,0,0,0,0,0,0,0,0,0,0,0,0,0,0,0,0,0,0,0,0,0,0,0,0,0,0,0,0,0,0,0,0,0,0,0,0,0,0,0,0,0,0,0,0,0,0,0,0,0,0,0,0],"trees":[{"base_weights":[3.9449573E-1,3.015546E-2,-9.095201E-1,-1.3933759E0,1.2867444E-2,-5.0003133E-3,-5.1383052E-2],"categories":[],"categories_nodes":[],"categories_segments":[],"categories_sizes":[],"default_left":[0,0,0,0,0,0,0],"id":0,"left_children":[1,-1,3,5,-1,-1,-1],"loss_changes":[1.3772032E1,0E0,4.973112E0,1.2921734E0,0E0,0E0,0E0],"parents":[2147483647,0,0,2,2,3,3],"right_children":[2,-1,4,6,-1,-1,-1],"split_conditions":[1.733228E3,3.015546E-2,8.4043E1,4.7357683E-4,1.2867444E-2,-5.0003133E-3,-5.1383052E-2],"split_indices":[0,0,9,16,0,0,0],"split_type":[0,0,0,0,0,0,0],"sum_hessian":[1.2997983E1,9.164476E0,3.8335066E0,2.7553327E0,1.0781738E0,1.1979707E0,1.557362E0],"tree_param":{"num_deleted":"0","num_feature":"21","num_nodes":"7","size_leaf_vector":"1"}},{"base_weights":[2.3541291E-1,2.9551124E-2,-1.1087636E0,-1.596005E0,1.2769192E-2,-1.1672828E-2,-5.490839E-2],"categories":[],"categories_nodes":[],"categories_segments":[],"categories_sizes":[],"default_left":[0,0,0,0,0,0,0],"id":1,"left_children":[1,-1,3,5,-1,-1,-1],"loss_changes":[1.6941402E1,0E0,5.982143E0,2.1915436E-2,0E0,0E0,0E0],"parents":[2147483647,0,0,2,2,3,3],"right_children":[2,-1,4,6,-1,-1,-1],"split_conditions":[1.735298E3,2.9551124E-2,8.4043E1,1.33E-1,1.2769192E-2,-1.1672828E-2,-5.490839E-2],"split_indices":[1,0,9,13,0,0,0],"split_type":[0,0,0,0,0,0,0],"sum_hessian":[1.2645345E1,8.461096E0,4.184248E0,3.1148503E0,1.0693977E0,1.371419E0,1.7434314E0],"tree_param":{"num_deleted":"0","num_feature":"21","num_nodes":"7","size_leaf_vector":"1"}},{"base_weights":[2.145488E-1,2.9168675E-2,-1.0839711E0,-4.960701E-2,1.3976874E-2],"categories":[],"categories_nodes":[],"categories_segments":[],"categories_sizes":[],"default_left":[0,0,0,0,0],"id":2,"left_children":[1,-1,3,-1,-1],"loss_changes":[1.6245745E1,0E0,7.049952E0,0E0,0E0],"parents":[2147483647,0,0,2,2],"right_children":[2,-1,4,-1,-1],"split_conditions":[1.733228E3,2.9168675E-2,5.1322497E-2,-4.960701E-2,1.3976874E-2],"split_indices":[0,0,18,0,0],"split_type":[0,0,0,0,0],"sum_hessian":[1.2368624E1,8.12804E0,4.240584E0,3.0030918E0,1.2374923E0],"tree_param":{"num_deleted":"0","num_feature":"21","num_nodes":"5","size_leaf_vector":"1"}},{"base_weights":[3.0166608E-1,2.9150724E-2,-8.819839E-1,-1.3843403E0,1.3864723E-2,-3.9420607E-3,-5.178549E-2],"categories":[],"categories_nodes":[],"categories_segments":[],"categories_sizes":[],"default_left":[0,0,0,0,0,0,0],"id":3,"left_children":[1,-1,3,5,-1,-1,-1],"loss_changes":[1.3341651E1,0E0,5.565899E0,1.739914E0,0E0,0E0,0E0],"parents":[2147483647,0,0,2,2,3,3],"right_children":[2,-1,4,6,-1,-1,-1],"split_conditions":[1.707368E3,2.9150724E-2,8.4043E1,4.7357683E-4,1.3864723E-2,-3.9420607E-3,-5.178549E-2],"split_indices":[0,0,9,16,0,0,0],"split_type":[0,0,0,0,0,0,0],"sum_hessian":[1.266144E1,8.313558E0,4.3478827E0,3.1214612E0,1.2264216E0,1.2625798E0,1.8588812E0],"tree_param":{"num_deleted":"0","num_feature":"21","num_nodes":"7","size_leaf_vector":"1"}},{"base_weights":[1.9958876E-1,2.866124E-2,-1.0296198E0,-1.558961E0,1.3754009E-2,-1.0321263E-2,-5.5447914E-2],"categories":[],"categories_nodes":[],"categories_segments":[],"categories_sizes":[],"default_left":[0,0,0,0,0,0,0],"id":4,"left_children":[1,-1,3,5,-1,-1,-1],"loss_changes":[1.5148131E1,0E0,6.4429107E0,5.3805923E-1,0E0,0E0,0E0],"parents":[2147483647,0,0,2,2,3,3],"right_children":[2,-1,4,6,-1,-1,-1],"split_conditions":[1.733228E3,2.866124E-2,8.4043E1,1.33E-1,1.3754009E-2,-1.0321263E-2,-5.5447914E-2],"split_indices":[0,0,9,13,0,0,0],"split_type":[0,0,0,0,0,0,0],"sum_hessian":[1.21878605E1,7.8232408E0,4.3646193E0,3.1491504E0,1.215469E0,1.4477572E0,1.7013931E0],"tree_param":{"num_deleted":"0","num_feature":"21","num_nodes":"7","size_leaf_vector":"1"}},{"base_weights":[2.6109788E-1,2.8655818E-2,-9.664396E-1,-4.2349275E-2,1.2359159E-2],"categories":[],"categories_nodes":[],"categories_segments":[],"categories_sizes":[],"default_left":[0,0,0,0,0],"id":5,"left_children":[1,-1,3,-1,-1],"loss_changes":[1.3843561E1,0E0,4.894346E0,0E0,0E0],"parents":[2147483647,0,0,2,2],"right_children":[2,-1,4,-1,-1],"split_conditions":[1.733228E3,2.8655818E-2,8.4043E1,-4.2349275E-2,1.2359159E-2],"split_indices":[0,0,9,0,0],"split_type":[0,0,0,0,0],"sum_hessian":[1.2080844E1,8.000681E0,4.080164E0,3.0476196E0,1.0325443E0],"tree_param":{"num_deleted":"0","num_feature":"21","num_nodes":"5","size_leaf_vector":"1"}},{"base_weights":[2.3103966E-1,2.8640704E-2,-9.727454E-1,-4.392637E-2,1.3546937E-2],"categories":[],"categories_nodes":[],"categories_segments":[],"categories_sizes":[],"default_left":[0,0,0,0,0],"id":6,"left_children":[1,-1,3,-1,-1],"loss_changes":[1.4629923E1,0E0,5.8692584E0,0E0,0E0],"parents":[2147483647,0,0,2,2],"right_children":[2,-1,4,-1,-1],"split_conditions":[1.733228E3,2.8640704E-2,8.4043E1,-4.392637E-2,1.3546937E-2],"split_indices":[0,0,9,0,0],"split_type":[0,0,0,0,0],"sum_hessian":[1.2662259E1,8.166721E0,4.495538E0,3.3006117E0,1.1949266E0],"tree_param":{"num_deleted":"0","num_feature":"21","num_nodes":"5","size_leaf_vector":"1"}},{"base_weights":[3.1194618E-1,2.8051287E-2,-7.42203E-1,-1.121242E0,1.2166647E-2,-8.247218E-3,-4.000626E-2],"categories":[],"categories_nodes":[],"categories_segments":[],"categories_sizes":[],"default_left":[0,0,0,0,0,0,0],"id":7,"left_children":[1,-1,3,5,-1,-1,-1],"loss_changes":[1.0429786E1,0E0,3.6193113E0,2.0359755E-1,0E0,0E0,0E0],"parents":[2147483647,0,0,2,2,3,3],"right_children":[2,-1,4,6,-1,-1,-1],"split_conditions":[1.733228E3,2.8051287E-2,8.4043E1,1.2599E5,1.2166647E-2,-8.247218E-3,-4.000626E-2],"split_indices":[0,0,9,4,0,0,0],"split_type":[0,0,0,0,0,0,0],"sum_hessian":[1.1765672E1,7.5367513E0,4.22892E0,3.2137923E0,1.0151278E0,1.564943E0,1.6488494E0],"tree_param":{"num_deleted":"0","num_feature":"21","num_nodes":"7","size_leaf_vector":"1"}},{"base_weights":[3.4746647E-1,2.8386539E-2,-7.4119943E-1,-1.1930991E0,1.3344859E-2,-2.159425E-3,-4.7142547E-2],"categories":[],"categories_nodes":[],"categories_segments":[],"categories_sizes":[],"default_left":[0,0,0,0,0,0,0],"id":8,"left_children":[1,-1,3,5,-1,-1,-1],"loss_changes":[1.0781404E1,0E0,4.398836E0,1.9165559E0,0E0,0E0,0E0],"parents":[2147483647,0,0,2,2,3,3],"right_children":[2,-1,4,6,-1,-1,-1],"split_conditions":[1.733228E3,2.8386539E-2,8.4043E1,4.7357683E-4,1.3344859E-2,-2.159425E-3,-4.7142547E-2],"split_indices":[0,0,9,16,0,0,0],"split_type":[0,0,0,0,0,0,0],"sum_hessian":[1.2388081E1,8.161215E0,4.2268653E0,3.0520508E0,1.1748143E0,1.3706802E0,1.6813705E0],"tree_param":{"num_deleted":"0","num_feature":"21","num_nodes":"7","size_leaf_vector":"1"}},{"base_weights":[2.539342E-1,2.7323827E-2,-8.0419946E-1,-1.2834978E0,1.3240699E-2,-4.3621412E-3,-4.714842E-2],"categories":[],"categories_nodes":[],"categories_segments":[],"categories_sizes":[],"default_left":[0,0,0,0,0,0,0],"id":9,"left_children":[1,-1,3,5,-1,-1,-1],"loss_changes":[1.0483852E1,0E0,4.734085E0,1.1390867E0,0E0,0E0,0E0],"parents":[2147483647,0,0,2,2,3,3],"right_children":[2,-1,4,6,-1,-1,-1],"split_conditions":[1.733228E3,2.7323827E-2,8.4043E1,1.2599E5,1.3240699E-2,-4.3621412E-3,-4.714842E-2],"split_indices":[0,0,9,4,0,0,0],"split_type":[0,0,0,0,0,0,0],"sum_hessian":[1.0976026E1,6.943921E0,4.0321045E0,2.8676794E0,1.1644254E0,1.18725E0,1.6804293E0],"tree_param":{"num_deleted":"0","num_feature":"21","num_nodes":"7","size_leaf_vector":"1"}},{"base_weights":[1.9190621E-1,2.7597683E-2,-8.896569E-1,-1.3251181E0,1.31378295E-2,-6.859338E-3,-4.4019382E-2],"categories":[],"categories_nodes":[],"categories_segments":[],"categories_sizes":[],"default_left":[0,0,0,0,0,0,0],"id":10,"left_children":[1,-1,3,5,-1,-1,-1],"loss_changes":[1.2728926E1,0E0,5.0247827E0,1.9120693E-1,0E0,0E0,0E0],"parents":[2147483647,0,0,2,2,3,3],"right_children":[2,-1,4,6,-1,-1,-1],"split_conditions":[1.733228E3,2.7597683E-2,8.4043E1,5E-2,1.31378295E-2,-6.859338E-3,-4.4019382E-2],"split_indices":[0,0,9,13,0,0,0],"split_type":[0,0,0,0,0,0,0],"sum_hessian":[1.2087063E1,7.402936E0,4.6841273E0,3.5299754E0,1.1541519E0,1.0039998E0,2.5259755E0],"tree_param":{"num_deleted":"0","num_feature":"21","num_nodes":"7","size_leaf_vector":"1"}},{"base_weights":[3.615392E-1,2.748974E-2,-6.2503237E-1,-1.0751112E0,1.3506932E-2,-3.0777256E-3,-4.0769543E-2],"categories":[],"categories_nodes":[],"categories_segments":[],"categories_sizes":[],"default_left":[0,0,0,0,0,0,0],"id":11,"left_children":[1,-1,3,5,-1,-1,-1],"loss_changes":[8.493021E0,0E0,3.881886E0,1.0558629E0,0E0,0E0,0E0],"parents":[2147483647,0,0,2,2,3,3],"right_children":[2,-1,4,6,-1,-1,-1],"split_conditions":[1.733228E3,2.748974E-2,6.757E1,5.007E0,1.3506932E-2,-3.0777256E-3,-4.0769543E-2],"split_indices":[0,0,9,10,0,0,0],"split_type":[0,0,0,0,0,0,0],"sum_hessian":[1.1424224E1,7.4034166E0,4.0208073E0,2.8345978E0,1.1862094E0,1.2556546E0,1.5789433E0],"tree_param":{"num_deleted":"0","num_feature":"21","num_nodes":"7","size_leaf_vector":"1"}},{"base_weights":[1.7123641E-1,2.715131E-2,-8.86642E-1,-1.1712565E0,4.507486E-3,-3.0402518E-3,-4.332997E-2],"categories":[],"categories_nodes":[],"categories_segments":[],"categories_sizes":[],"default_left":[0,0,0,0,0,0,0],"id":12,"left_children":[1,-1,3,5,-1,-1,-1],"loss_changes":[1.2288533E1,0E0,2.3135648E0,1.2974572E0,0E0,0E0,0E0],"parents":[2147483647,0,0,2,2,3,3],"right_children":[2,-1,4,6,-1,-1,-1],"split_conditions":[1.733228E3,2.715131E-2,6.757E1,5.007E0,4.507486E-3,-3.0402518E-3,-4.332997E-2],"split_indices":[0,0,9,10,0,0,0],"split_type":[0,0,0,0,0,0,0],"sum_hessian":[1.1762623E1,7.115698E0,4.646925E0,3.442759E0,1.2041659E0,1.2576182E0,2.1851408E0],"tree_param":{"num_deleted":"0","num_feature":"21","num_nodes":"7","size_leaf_vector":"1"}},{"base_weights":[2.553651E-1,2.6282934E-2,-5.984604E-1,-9.6698767E-1,1.2897681E-2,-8.58397E-4,-3.866877E-2],"categories":[],"categories_nodes":[],"categories_segments":[],"categories_sizes":[],"default_left":[0,0,0,0,0,0,0],"id":13,"left_children":[1,-1,3,5,-1,-1,-1],"loss_changes":[7.883392E0,0E0,3.3391993E0,1.5839705E0,0E0,0E0,0E0],"parents":[2147483647,0,0,2,2,3,3],"right_children":[2,-1,4,6,-1,-1,-1],"split_conditions":[1.733228E3,2.6282934E-2,8.4043E1,1.33E-1,1.2897681E-2,-8.58397E-4,-3.866877E-2],"split_indices":[0,0,9,13,0,0,0],"split_type":[0,0,0,0,0,0,0],"sum_hessian":[1.0895858E1,6.2789087E0,4.6169496E0,3.4868262E0,1.1301231E0,1.4470849E0,2.0397413E0],"tree_param":{"num_deleted":"0","num_feature":"21","num_nodes":"7","size_leaf_vector":"1"}},{"base_weights":[1.5428673E-1,2.6723431E-2,-8.66867E-1,-1.1188182E0,3.7725926E-3,-4.1647807E-2,-2.6185135E-3],"categories":[],"categories_nodes":[],"categories_segments":[],"categories_sizes":[],"default_left":[0,0,0,0,0,0,0],"id":14,"left_children":[1,-1,3,5,-1,-1,-1],"loss_changes":[1.17147665E1,0E0,1.9520288E0,1.2946177E0,0E0,0E0,0E0],"parents":[2147483647,0,0,2,2,3,3],"right_children":[2,-1,4,6,-1,-1,-1],"split_conditions":[1.733228E3,2.6723431E-2,6.757E1,3E0,3.7725926E-3,-4.1647807E-2,-2.6185135E-3],"split_indices":[0,0,9,12,0,0,0],"split_type":[0,0,0,0,0,0,0],"sum_hessian":[1.1523125E1,6.843024E0,4.6801014E0,3.529863E0,1.1502382E0,2.250405E0,1.279458E0],"tree_param":{"num_deleted":"0","num_feature":"21","num_nodes":"7","size_leaf_vector":"1"}},{"base_weights":[1.8667948E-1,2.6628567E-2,-7.408819E-1,-3.3060852E-2,1.2770246E-2],"categories":[],"categories_nodes":[],"categories_segments":[],"categories_sizes":[],"default_left":[0,0,0,0,0],"id":15,"left_children":[1,-1,3,-1,-1],"loss_changes":[1.0369089E1,0E0,3.9226482E0,0E0,0E0],"parents":[2147483647,0,0,2,2],"right_children":[2,-1,4,-1,-1],"split_conditions":[1.707368E3,2.6628567E-2,8.4043E1,-3.3060852E-2,1.2770246E-2],"split_indices":[0,0,9,0,0],"split_type":[0,0,0,0,0],"sum_hessian":[1.1925475E1,6.8415656E0,5.0839095E0,3.966559E0,1.1173503E0],"tree_param":{"num_deleted":"0","num_feature":"21","num_nodes":"5","size_leaf_vector":"1"}},{"base_weights":[2.8852767E-1,2.6540548E-2,-6.084811E-1,-9.755993E-1,1.2673131E-2,-2.392856E-3,-3.653329E-2],"categories":[],"categories_nodes":[],"categories_segments":[],"categories_sizes":[],"default_left":[0,0,0,0,0,0,0],"id":16,"left_children":[1,-1,3,5,-1,-1,-1],"loss_changes":[8.221325E0,0E0,3.2916126E0,9.7980785E-1,0E0,0E0,0E0],"parents":[2147483647,0,0,2,2,3,3],"right_children":[2,-1,4,6,-1,-1,-1],"split_conditions":[1.733228E3,2.6540548E-2,8.4043E1,5.007E0,1.2673131E-2,-2.392856E-3,-3.653329E-2],"split_indices":[0,0,9,10,0,0,0],"split_type":[0,0,0,0,0,0,0],"sum_hessian":[1.136061E1,6.8413124E0,4.519298E0,3.41169E0,1.1076082E0,1.2918206E0,2.1198692E0],"tree_param":{"num_deleted":"0","num_feature":"21","num_nodes":"7","size_leaf_vector":"1"}},{"base_weights":[1.1101629E-1,2.6215298E-2,-9.4823295E-1,-1.2540237E0,4.352095E-3,-1.993395E-3,-4.860675E-2],"categories":[],"categories_nodes":[],"categories_segments":[],"categories_sizes":[],"default_left":[0,0,0,0,0,0,0],"id":17,"left_children":[1,-1,3,5,-1,-1,-1],"loss_changes":[1.2132212E1,0E0,2.499001E0,2.0452776E0,0E0,0E0,0E0],"parents":[2147483647,0,0,2,2,3,3],"right_children":[2,-1,4,6,-1,-1,-1],"split_conditions":[1.733228E3,2.6215298E-2,6.757E1,5.007E0,4.352095E-3,-1.993395E-3,-4.860675E-2],"split_indices":[0,0,9,10,0,0,0],"split_type":[0,0,0,0,0,0,0],"sum_hessian":[1.096372E1,6.57718E0,4.38654E0,3.1980526E0,1.188487E0,1.3106291E0,1.8874236E0],"tree_param":{"num_deleted":"0","num_feature":"21","num_nodes":"7","size_leaf_vector":"1"}},{"base_weights":[1.6453512E-1,2.6129408E-2,-7.497759E-1,-1.1088175E0,1.2544344E-2,-5.3675347E-3,-4.222451E-2],"categories":[],"categories_nodes":[],"categories_segments":[],"categories_sizes":[],"default_left":[0,0,0,0,0,0,0],"id":18,"left_children":[1,-1,3,5,-1,-1,-1],"loss_changes":[1.0063945E1,0E0,3.8562315E0,1.132206E0,0E0,0E0,0E0],"parents":[2147483647,0,0,2,2,3,3],"right_children":[2,-1,4,6,-1,-1,-1],"split_conditions":[1.733228E3,2.6129408E-2,8.4043E1,1.33E-1,1.2544344E-2,-5.3675347E-3,-4.222451E-2],"split_indices":[0,0,9,13,0,0,0],"split_type":[0,0,0,0,0,0,0],"sum_hessian":[1.1558944E1,6.574173E0,4.9847713E0,3.8900921E0,1.094679E0,1.7231534E0,2.1669388E0],"tree_param":{"num_deleted":"0","num_feature":"21","num_nodes":"7","size_leaf_vector":"1"}},{"base_weights":[1.1475506E-1,2.5290186E-2,-7.2870463E-1,-1.0772021E0,1.2449948E-2,-4.5856717E-3,-1.2255745E0,-4.4287755E-3,-4.4032395E-2],"categories":[],"categories_nodes":[],"categories_segments":[],"categories_sizes":[],"default_left":[0,0,0,0,0,0,0,0,0],"id":19,"left_children":[1,-1,3,5,-1,-1,7,-1,-1],"loss_changes":[9.123695E0,0E0,3.6953764E0,4.4040394E-1,0E0,0E0,8.290925E-1,0E0,0E0],"parents":[2147483647,0,0,2,2,3,3,6,6],"right_children":[2,-1,4,6,-1,-1,8,-1,-1],"split_conditions":[1.735298E3,2.5290186E-2,8.4043E1,5E-2,1.2449948E-2,-4.5856717E-3,-3.5450358E-3,-4.4287755E-3,-4.4032395E-2],"split_indices":[1,0,9,13,0,0,16,0,0],"split_type":[0,0,0,0,0,0,0,0,0],"sum_hessian":[1.085321E1,5.82496E0,5.0282507E0,3.943054E0,1.0851967E0,1.1069973E0,2.8360567E0,1.1108146E0,1.7252423E0],"tree_param":{"num_deleted":"0","num_feature":"21","num_nodes":"9","size_leaf_vector":"1"}},{"base_weights":[1.9043623E-1,2.5731549E-2,-7.0777315E-1,-1.0746038E0,1.2356682E-2,-4.5332536E-3,-3.7139934E-2],"categories":[],"categories_nodes":[],"categories_segments":[],"categories_sizes":[],"default_left":[0,0,0,0,0,0,0],"id":20,"left_children":[1,-1,3,5,-1,-1,-1],"loss_changes":[8.961124E0,0E0,3.5981605E0,4.602003E-1,0E0,0E0,0E0],"parents":[2147483647,0,0,2,2,3,3],"right_children":[2,-1,4,6,-1,-1,-1],"split_conditions":[1.733228E3,2.5731549E-2,8.4043E1,5E-2,1.2356682E-2,-4.5332536E-3,-3.7139934E-2],"split_indices":[0,0,9,13,0,0,0],"split_type":[0,0,0,0,0,0,0],"sum_hessian":[1.0925449E1,6.3202667E0,4.6051826E0,3.5293589E0,1.0758238E0,1.109295E0,2.420064E0],"tree_param":{"num_deleted":"0","num_feature":"21","num_nodes":"7","size_leaf_vector":"1"}},{"base_weights":[1.9901013E-1,2.5024824E-2,-6.3410735E-1,-9.9851507E-1,1.2264521E-2,1.3732811E-3,-4.386807E-2],"categories":[],"categories_nodes":[],"categories_segments":[],"categories_sizes":[],"default_left":[0,0,0,0,0,0,0],"id":21,"left_children":[1,-1,3,5,-1,-1,-1],"loss_changes":[7.451167E0,0E0,3.2345858E0,2.698791E0,0E0,0E0,0E0],"parents":[2147483647,0,0,2,2,3,3],"right_children":[2,-1,4,6,-1,-1,-1],"split_conditions":[1.733228E3,2.5024824E-2,5.1322497E-2,1.2599E5,1.2264521E-2,1.3732811E-3,-4.386807E-2],"split_indices":[0,0,18,4,0,0,0],"split_type":[0,0,0,0,0,0,0],"sum_hessian":[1.0082037E1,5.719279E0,4.362758E0,3.296199E0,1.0665592E0,1.5679774E0,1.7282217E0],"tree_param":{"num_deleted":"0","num_feature":"21","num_nodes":"7","size_leaf_vector":"1"}},{"base_weights":[1.5691842E-1,2.4829065E-2,-6.4619136E-1,5.5788975E-4,-8.4499866E-1,-1.8301844E-3,-3.258876E-2],"categories":[],"categories_nodes":[],"categories_segments":[],"categories_sizes":[],"default_left":[0,0,0,0,0,0,0],"id":22,"left_children":[1,-1,3,-1,5,-1,-1],"loss_changes":[7.724337E0,0E0,9.229224E-1,0E0,8.578825E-1,0E0,0E0],"parents":[2147483647,0,0,2,2,4,4],"right_children":[2,-1,4,-1,6,-1,-1],"split_conditions":[1.735298E3,2.4829065E-2,4.7357683E-4,5.5788975E-4,1.7E-1,-1.8301844E-3,-3.258876E-2],"split_indices":[1,0,16,0,13,0,0],"split_type":[0,0,0,0,0,0,0],"sum_hessian":[1.0354215E1,5.608881E0,4.7453337E0,1.5097688E0,3.235565E0,1.3511546E0,1.8844104E0],"tree_param":{"num_deleted":"0","num_feature":"21","num_nodes":"7","size_leaf_vector":"1"}},{"base_weights":[2.3934107E-1,2.4635252E-2,-4.6152723E-1,-7.596812E-1,1.2247854E-2,-9.685867E-1,-8.833228E-4,-3.556302E-2,-3.6054256E-3],"categories":[],"categories_nodes":[],"categories_segments":[],"categories_sizes":[],"default_left":[0,0,0,0,0,0,0,0,0],"id":23,"left_children":[1,-1,3,5,-1,7,-1,-1,-1],"loss_changes":[5.818914E0,0E0,2.4122372E0,8.346212E-1,0E0,5.396638E-1,0E0,0E0,0E0],"parents":[2147483647,0,0,2,2,3,3,5,5],"right_children":[2,-1,4,6,-1,8,-1,-1,-1],"split_conditions":[1.733228E3,2.4635252E-2,8.4043E1,3E0,1.2247854E-2,5.589172E-1,-8.833228E-4,-3.556302E-2,-3.6054256E-3],"split_indices":[0,0,9,12,0,15,0,0,0],"split_type":[0,0,0,0,0,0,0,0,0],"sum_hessian":[1.0410645E1,5.500791E0,4.909854E0,3.84501E0,1.0648439E0,2.4821258E0,1.3628845E0,1.3440876E0,1.138038E0],"tree_param":{"num_deleted":"0","num_feature":"21","num_nodes":"9","size_leaf_vector":"1"}},{"base_weights":[1.4184897E-1,2.483819E-2,-7.286995E-1,8.125333E-4,-9.8570406E-1,-4.6204E-3,-3.428298E-2],"categories":[],"categories_nodes":[],"categories_segments":[],"categories_sizes":[],"default_left":[0,0,0,0,0,0,0],"id":24,"left_children":[1,-1,3,-1,5,-1,-1],"loss_changes":[8.46447E0,0E0,1.3003321E0,0E0,2.807579E-1,0E0,0E0],"parents":[2147483647,0,0,2,2,4,4],"right_children":[2,-1,4,-1,6,-1,-1],"split_conditions":[1.733228E3,2.483819E-2,1.7E-1,8.125333E-4,-2.895756E-3,-4.6204E-3,-3.428298E-2],"split_indices":[0,0,13,0,16,0,0],"split_type":[0,0,0,0,0,0,0],"sum_hessian":[1.0151568E1,5.7319965E0,4.4195724E0,1.5755417E0,2.8440306E0,1.0809976E0,1.763033E0],"tree_param":{"num_deleted":"0","num_feature":"21","num_nodes":"7","size_leaf_vector":"1"}},{"base_weights":[1.7305052E-1,2.4250103E-2,-5.217952E-1,-8.1753E-1,1.2233225E-2,-1.0211712E0,-1.221784E-3,-3.7284136E-2,-3.4919302E-3],"categories":[],"categories_nodes":[],"categories_segments":[],"categories_sizes":[],"default_left":[0,0,0,0,0,0,0,0,0],"id":25,"left_children":[1,-1,3,5,-1,7,-1,-1,-1],"loss_changes":[6.3405275E0,0E0,2.635883E0,8.817377E-1,0E0,6.6313505E-1,0E0,0E0,0E0],"parents":[2147483647,0,0,2,2,3,3,5,5],"right_children":[2,-1,4,6,-1,8,-1,-1,-1],"split_conditions":[1.735298E3,2.4250103E-2,8.4043E1,3E0,1.2233225E-2,5.589172E-1,-1.221784E-3,-3.7284136E-2,-3.4919302E-3],"split_indices":[1,0,9,12,0,15,0,0,0],"split_type":[0,0,0,0,0,0,0,0,0],"sum_hessian":[1.0452722E1,5.289736E0,5.162986E0,4.0997434E0,1.0632424E0,2.7497325E0,1.350011E0,1.6084979E0,1.1412346E0],"tree_param":{"num_deleted":"0","num_feature":"21","num_nodes":"9","size_leaf_vector":"1"}},{"base_weights":[1.733484E-1,2.4709888E-2,-6.186549E-1,-8.8209844E-1,5.629937E-3,-1.4636667E-4,-3.5383552E-2],"categories":[],"categories_nodes":[],"categories_segments":[],"categories_sizes":[],"default_left":[0,0,0,0,0,0,0],"id":26,"left_children":[1,-1,3,5,-1,-1,-1],"loss_changes":[7.463606E0,0E0,1.7720695E0,1.4137387E0,0E0,0E0,0E0],"parents":[2147483647,0,0,2,2,3,3],"right_children":[2,-1,4,6,-1,-1,-1],"split_conditions":[1.733228E3,2.4709888E-2,6.757E1,5.007E0,5.629937E-3,-1.4636667E-4,-3.5383552E-2],"split_indices":[0,0,9,10,0,0,0],"split_type":[0,0,0,0,0,0,0],"sum_hessian":[1.0512306E1,5.7286E0,4.783706E0,3.4639802E0,1.3197261E0,1.3915617E0,2.0724182E0],"tree_param":{"num_deleted":"0","num_feature":"21","num_nodes":"7","size_leaf_vector":"1"}},{"base_weights":[3.0455846E-1,7.76355E-1,-5.2610415E-1,2.4881732E-2,4.6850536E-3,4.0475624E-3,-2.8600657E-2],"categories":[],"categories_nodes":[],"categories_segments":[],"categories_sizes":[],"default_left":[0,0,0,0,0,0,0],"id":27,"left_children":[1,3,5,-1,-1,-1,-1],"loss_changes":[5.5492067E0,2.0831108E-2,1.8292736E0,0E0,0E0,0E0,0E0],"parents":[2147483647,0,0,1,1,2,2],"right_children":[2,4,6,-1,-1,-1,-1],"split_conditions":[2.1E-1,1.796445E3,9E0,2.4881732E-2,4.6850536E-3,4.0475624E-3,-2.8600657E-2],"split_indices":[13,0,11,0,0,0,0],"split_type":[0,0,0,0,0,0,0],"sum_hessian":[1.007521E1,6.5090065E0,3.5662034E0,5.3747296E0,1.1342769E0,1.9373145E0,1.628889E0],"tree_param":{"num_deleted":"0","num_feature":"21","num_nodes":"7","size_leaf_vector":"1"}},{"base_weights":[5.335179E-2,2.3724254E-2,-7.07325E-1,-1.0402589E0,1.2047671E-2,-3.5472594E-2,-4.540674E-3],"categories":[],"categories_nodes":[],"categories_segments":[],"categories_sizes":[],"default_left":[0,0,0,0,0,0,0],"id":28,"left_children":[1,-1,3,5,-1,-1,-1],"loss_changes":[7.819988E0,0E0,3.3962936E0,3.8656855E-1,0E0,0E0,0E0],"parents":[2147483647,0,0,2,2,3,3],"right_children":[2,-1,4,6,-1,-1,-1],"split_conditions":[1.733228E3,2.3724254E-2,8.4043E1,6.867447E-1,1.2047671E-2,-3.5472594E-2,-4.540674E-3],"split_indices":[0,0,9,15,0,0,0],"split_type":[0,0,0,0,0,0,0],"sum_hessian":[9.945944E0,5.0098243E0,4.9361196E0,3.8915634E0,1.0445564E0,2.785656E0,1.1059073E0],"tree_param":{"num_deleted":"0","num_feature":"21","num_nodes":"7","size_leaf_vector":"1"}},{"base_weights":[3.9377626E-2,2.3098623E-2,-6.557695E-1,-9.068762E-1,5.3957375E-3,-2.224358E-3,-3.2751318E-2],"categories":[],"categories_nodes":[],"categories_segments":[],"categories_sizes":[],"default_left":[0,0,0,0,0,0,0],"id":29,"left_children":[1,-1,3,5,-1,-1,-1],"loss_changes":[6.9356E0,0E0,1.807451E0,7.245245E-1,0E0,0E0,0E0],"parents":[2147483647,0,0,2,2,3,3],"right_children":[2,-1,4,6,-1,-1,-1],"split_conditions":[1.733228E3,2.3098623E-2,4.059474E-2,5.2E-2,5.3957375E-3,-2.224358E-3,-3.2751318E-2],"split_indices":[0,0,18,14,0,0,0],"split_type":[0,0,0,0,0,0,0],"sum_hessian":[9.668168E0,4.609018E0,5.05915E0,3.7590313E0,1.3001193E0,1.1918234E0,2.5672078E0],"tree_param":{"num_deleted":"0","num_feature":"21","num_nodes":"7","size_leaf_vector":"1"}},{"base_weights":[2.0225033E-1,2.3771685E-2,-4.9437153E-1,2.467784E-1,-3.0326517E-2,-4.395858E-3,1.4500667E-2],"categories":[],"categories_nodes":[],"categories_segments":[],"categories_sizes":[],"default_left":[0,0,0,0,0,0,0],"id":30,"left_children":[1,-1,3,5,-1,-1,-1],"loss_changes":[5.6101413E0,0E0,3.0316944E0,5.440607E-1,0E0,0E0,0E0],"parents":[2147483647,0,0,2,2,3,3],"right_children":[2,-1,4,6,-1,-1,-1],"split_conditions":[1.733228E3,2.3771685E-2,2.2E-1,1.794665E3,-3.0326517E-2,-4.395858E-3,1.4500667E-2],"split_indices":[0,0,13,0,0,0,0],"split_type":[0,0,0,0,0,0,0],"sum_hessian":[9.740759E0,5.124565E0,4.6161942E0,2.324781E0,2.291413E0,1.1590818E0,1.1656992E0],"tree_param":{"num_deleted":"0","num_feature":"21","num_nodes":"7","size_leaf_vector":"1"}},{"base_weights":[1.443451E-1,7.0900875E-1,-5.642649E-1,2.5148666E-3,2.3463793E-2,5.5298125E-3,-8.090909E-1,-1.7925855E-3,-3.1216528E-2],"categories":[],"categories_nodes":[],"categories_segments":[],"categories_sizes":[],"default_left":[0,0,0,0,0,0,0,0,0],"id":31,"left_children":[1,3,5,-1,-1,-1,7,-1,-1],"loss_changes":[5.5519834E0,2.1150446E-1,1.4676259E0,0E0,0E0,0E0,7.7390194E-1,0E0,0E0],"parents":[2147483647,0,0,1,1,2,2,6,6],"right_children":[2,4,6,-1,-1,-1,8,-1,-1],"split_conditions":[1.773938E3,-2.228E1,4.7357683E-4,2.5148666E-3,2.3463793E-2,5.5298125E-3,1.7E-1,-1.7925855E-3,-3.1216528E-2],"split_indices":[0,9,16,0,0,0,13,0,0],"split_type":[0,0,0,0,0,0,0,0,0],"sum_hessian":[9.875864E0,5.495549E0,4.3803144E0,1.0249425E0,4.470607E0,1.2013199E0,3.1789944E0,1.344044E0,1.8349504E0],"tree_param":{"num_deleted":"0","num_feature":"21","num_nodes":"9","size_leaf_vector":"1"}},{"base_weights":[1.1767961E-1,2.3431415E-2,-5.2921414E-1,-8.017425E-1,1.1953546E-2,-2.6973276E-3,-3.1445168E-2],"categories":[],"categories_nodes":[],"categories_segments":[],"categories_sizes":[],"default_left":[0,0,0,0,0,0,0],"id":32,"left_children":[1,-1,3,5,-1,-1,-1],"loss_changes":[6.1573815E0,0E0,2.5303156E0,9.423475E-1,0E0,0E0,0E0],"parents":[2147483647,0,0,2,2,3,3],"right_children":[2,-1,4,6,-1,-1,-1],"split_conditions":[1.733228E3,2.3431415E-2,5.1322497E-2,4.7357683E-4,1.1953546E-2,-2.6973276E-3,-3.1445168E-2],"split_indices":[0,0,18,16,0,0,0],"split_type":[0,0,0,0,0,0,0],"sum_hessian":[1.0422156E1,4.9407864E0,5.4813704E0,4.4465523E0,1.034818E0,1.8454717E0,2.6010804E0],"tree_param":{"num_deleted":"0","num_feature":"21","num_nodes":"7","size_leaf_vector":"1"}},{"base_weights":[-1.2367715E-2,2.2400057E-2,-7.154946E-1,-2.4757028E-1,-3.0623034E-2,-1.5458074E-2,6.773704E-3],"categories":[],"categories_nodes":[],"categories_segments":[],"categories_sizes":[],"default_left":[0,0,0,0,0,0,0],"id":33,"left_children":[1,-1,3,5,-1,-1,-1],"loss_changes":[6.9572845E0,0E0,4.586718E-1,9.049393E-1,0E0,0E0,0E0],"parents":[2147483647,0,0,2,2,3,3],"right_children":[2,-1,4,6,-1,-1,-1],"split_conditions":[1.735298E3,2.2400057E-2,6.37E0,1.42E-1,-3.0623034E-2,-1.5458074E-2,6.773704E-3],"split_indices":[1,0,10,14,0,0,0],"split_type":[0,0,0,0,0,0,0],"sum_hessian":[9.033957E0,4.2847023E0,4.7492537E0,3.3051152E0,1.4441388E0,1.9980767E0,1.3070384E0],"tree_param":{"num_deleted":"0","num_feature":"21","num_nodes":"7","size_leaf_vector":"1"}},{"base_weights":[9.88907E-3,2.252622E-2,-6.826089E-1,-9.4334185E-1,5.257539E-3,-1.4532615E-3,-3.5104003E-2],"categories":[],"categories_nodes":[],"categories_segments":[],"categories_sizes":[],"default_left":[0,0,0,0,0,0,0],"id":34,"left_children":[1,-1,3,5,-1,-1,-1],"loss_changes":[6.800324E0,0E0,1.8662448E0,1.0188198E0,0E0,0E0,0E0],"parents":[2147483647,0,0,2,2,3,3],"right_children":[2,-1,4,6,-1,-1,-1],"split_conditions":[1.733228E3,2.252622E-2,6.757E1,5.2E-2,5.257539E-3,-1.4532615E-3,-3.5104003E-2],"split_indices":[0,0,9,14,0,0,0],"split_type":[0,0,0,0,0,0,0],"sum_hessian":[9.25487E0,4.3894677E0,4.865402E0,3.5784876E0,1.2869147E0,1.214272E0,2.3642156E0],"tree_param":{"num_deleted":"0","num_feature":"21","num_nodes":"7","size_leaf_vector":"1"}},{"base_weights":[9.049557E-2,2.2494735E-2,-4.932753E-1,-7.554132E-1,1.1882215E-2,-2.2387987E-3,-2.9900134E-2],"categories":[],"categories_nodes":[],"categories_segments":[],"categories_sizes":[],"default_left":[0,0,0,0,0,0,0],"id":35,"left_children":[1,-1,3,5,-1,-1,-1],"loss_changes":[5.3325353E0,0E0,2.355116E0,9.201181E-1,0E0,0E0,0E0],"parents":[2147483647,0,0,2,2,3,3],"right_children":[2,-1,4,6,-1,-1,-1],"split_conditions":[1.733228E3,2.2494735E-2,8.4043E1,4.7357683E-4,1.1882215E-2,-2.2387987E-3,-2.9900134E-2],"split_indices":[0,0,9,16,0,0,0],"split_type":[0,0,0,0,0,0,0],"sum_hessian":[9.932529E0,4.397245E0,5.535285E0,4.5077996E0,1.0274851E0,1.8646735E0,2.6431262E0],"tree_param":{"num_deleted":"0","num_feature":"21","num_nodes":"7","size_leaf_vector":"1"}},{"base_weights":[1.4717525E-1,2.2746144E-2,-4.6136594E-1,-8.0652124E-1,1.3550195E-2,-4.62754E-3,-3.335671E-2],"categories":[],"categories_nodes":[],"categories_segments":[],"categories_sizes":[],"default_left":[0,0,0,0,0,0,0],"id":36,"left_children":[1,-1,3,5,-1,-1,-1],"loss_changes":[5.0436473E0,0E0,2.965001E0,8.2574725E-1,0E0,0E0,0E0],"parents":[2147483647,0,0,2,2,3,3],"right_children":[2,-1,4,6,-1,-1,-1],"split_conditions":[1.733228E3,2.2746144E-2,6.757E1,5.348E0,1.3550195E-2,-4.62754E-3,-3.335671E-2],"split_indices":[0,0,9,10,0,0,0],"split_type":[0,0,0,0,0,0,0],"sum_hessian":[9.682624E0,4.5859976E0,5.0966263E0,3.8678086E0,1.2288179E0,2.193259E0,1.6745495E0],"tree_param":{"num_deleted":"0","num_feature":"21","num_nodes":"7","size_leaf_vector":"1"}},{"base_weights":[1.7532341E-1,2.283763E-2,-4.078448E-1,-6.593912E-1,1.1697351E-2,-7.415411E-4,-2.7646603E-2],"categories":[],"categories_nodes":[],"categories_segments":[],"categories_sizes":[],"default_left":[0,0,0,0,0,0,0],"id":37,"left_children":[1,-1,3,5,-1,-1,-1],"loss_changes":[4.7160263E0,0E0,1.9808725E0,1.002651E0,0E0,0E0,0E0],"parents":[2147483647,0,0,2,2,3,3],"right_children":[2,-1,4,6,-1,-1,-1],"split_conditions":[1.733228E3,2.283763E-2,8.4043E1,1.2599E5,1.1697351E-2,-7.415411E-4,-2.7646603E-2],"split_indices":[0,0,9,4,0,0,0],"split_type":[0,0,0,0,0,0,0],"sum_hessian":[9.984559E0,4.675827E0,5.3087316E0,4.2998123E0,1.0089194E0,1.8966787E0,2.4031336E0],"tree_param":{"num_deleted":"0","num_feature":"21","num_nodes":"7","size_leaf_vector":"1"}},{"base_weights":[9.356379E-2,2.2664621E-2,-5.318119E-1,2.6652439E-2,-7.94834E-1,1.3686908E-2,-1.1958768E-2,-2.7872012E-3,-2.8552422E-2],"categories":[],"categories_nodes":[],"categories_segments":[],"categories_sizes":[],"default_left":[0,0,0,0,0,0,0,0,0],"id":38,"left_children":[1,-1,3,5,7,-1,-1,-1,-1],"loss_changes":[5.7120833E0,0E0,1.1103895E0,1.1425589E0,3.7472558E-1,0E0,0E0,0E0,0E0],"parents":[2147483647,0,0,2,2,3,3,4,4],"right_children":[2,-1,4,6,8,-1,-1,-1,-1],"split_conditions":[1.733228E3,2.2664621E-2,1.7E-1,1.2599E5,-2.895756E-3,1.3686908E-2,-1.1958768E-2,-2.7872012E-3,-2.8552422E-2],"split_indices":[0,0,13,4,16,0,0,0,0],"split_type":[0,0,0,0,0,0,0,0,0],"sum_hessian":[9.857758E0,4.5867953E0,5.270962E0,2.2631161E0,3.007846E0,1.0534513E0,1.209665E0,1.1313058E0,1.8765402E0],"tree_param":{"num_deleted":"0","num_feature":"21","num_nodes":"9","size_leaf_vector":"1"}},{"base_weights":[4.4965856E-2,2.1633485E-2,-5.198988E-1,-7.8878254E-1,1.1700921E-2,-1.8804672E-3,-3.2019723E-2],"categories":[],"categories_nodes":[],"categories_segments":[],"categories_sizes":[],"default_left":[0,0,0,0,0,0,0],"id":39,"left_children":[1,-1,3,5,-1,-1,-1],"loss_changes":[5.070032E0,0E0,2.4074788E0,1.14359E0,0E0,0E0,0E0],"parents":[2147483647,0,0,2,2,3,3],"right_children":[2,-1,4,6,-1,-1,-1],"split_conditions":[1.733228E3,2.1633485E-2,8.4043E1,4.7357683E-4,1.1700921E-2,-1.8804672E-3,-3.2019723E-2],"split_indices":[0,0,9,16,0,0,0],"split_type":[0,0,0,0,0,0,0],"sum_hessian":[9.311442E0,3.9864154E0,5.325027E0,4.3159447E0,1.0090823E0,1.8759099E0,2.4400349E0],"tree_param":{"num_deleted":"0","num_feature":"21","num_nodes":"7","size_leaf_vector":"1"}},{"base_weights":[6.974038E-2,2.191524E-2,-5.038324E-1,-7.66353E-1,1.1616432E-2,-2.8098747E-2,-4.0125274E-3],"categories":[],"categories_nodes":[],"categories_segments":[],"categories_sizes":[],"default_left":[0,0,0,0,0,0,0],"id":40,"left_children":[1,-1,3,5,-1,-1,-1],"loss_changes":[5.099541E0,0E0,2.312041E0,4.330299E-1,0E0,0E0,0E0],"parents":[2147483647,0,0,2,2,3,3],"right_children":[2,-1,4,6,-1,-1,-1],"split_conditions":[1.733228E3,2.191524E-2,8.4043E1,3E0,1.1616432E-2,-2.8098747E-2,-4.0125274E-3],"split_indices":[0,0,9,12,0,0,0],"split_type":[0,0,0,0,0,0,0],"sum_hessian":[9.513069E0,4.166247E0,5.3468223E0,4.346219E0,1.0006032E0,2.6671453E0,1.6790739E0],"tree_param":{"num_deleted":"0","num_feature":"21","num_nodes":"7","size_leaf_vector":"1"}},{"base_weights":[1.13847494E-1,2.2162253E-2,-4.3842155E-1,-6.57926E-1,6.4302594E-3,-3.9562866E-2,-3.147041E-2,7.862797E-3,-9.492112E-3],"categories":[],"categories_nodes":[],"categories_segments":[],"categories_sizes":[],"default_left":[0,0,0,0,0,0,0,0,0],"id":41,"left_children":[1,-1,3,5,-1,7,-1,-1,-1],"loss_changes":[4.760826E0,0E0,1.3684016E0,1.4079871E0,0E0,5.3889704E-1,0E0,0E0,0E0],"parents":[2147483647,0,0,2,2,3,3,5,5],"right_children":[2,-1,4,6,-1,8,-1,-1,-1],"split_conditions":[1.733228E3,2.2162253E-2,6.757E1,5.348E0,6.4302594E-3,2.2E-1,-3.147041E-2,7.862797E-3,-9.492112E-3],"split_indices":[0,0,9,10,0,13,0,0,0],"split_type":[0,0,0,0,0,0,0,0,0],"sum_hessian":[9.918137E0,4.336301E0,5.5818357E0,4.1653414E0,1.4164944E0,2.467E0,1.6983414E0,1.2315738E0,1.2354262E0],"tree_param":{"num_deleted":"0","num_feature":"21","num_nodes":"9","size_leaf_vector":"1"}},{"base_weights":[1.7163053E-1,2.143757E-2,-3.4113336E-1,-5.174089E-1,5.1901895E-3,7.635294E-3,-2.5326688E-2],"categories":[],"categories_nodes":[],"categories_segments":[],"categories_sizes":[],"default_left":[0,0,0,0,0,0,0],"id":42,"left_children":[1,-1,3,5,-1,-1,-1],"loss_changes":[3.5192287E0,0E0,8.092856E-1,1.8625886E0,0E0,0E0,0E0],"parents":[2147483647,0,0,2,2,3,3],"right_children":[2,-1,4,6,-1,-1,-1],"split_conditions":[1.733228E3,2.143757E-2,4.023E1,5.007E0,5.1901895E-3,7.635294E-3,-2.5326688E-2],"split_indices":[0,0,9,10,0,0,0],"split_type":[0,0,0,0,0,0,0],"sum_hessian":[8.889387E0,3.9352453E0,4.954142E0,3.6797895E0,1.2743528E0,1.226154E0,2.4536357E0],"tree_param":{"num_deleted":"0","num_feature":"21","num_nodes":"7","size_leaf_vector":"1"}},{"base_weights":[1.2335574E-1,2.1406554E-2,-4.026588E-1,-6.265834E-1,6.305885E-3,-2.6915051E-2,1.9711738E-3],"categories":[],"categories_nodes":[],"categories_segments":[],"categories_sizes":[],"default_left":[0,0,0,0,0,0,0],"id":43,"left_children":[1,-1,3,5,-1,-1,-1],"loss_changes":[4.0108366E0,0E0,1.2420121E0,1.190336E0,0E0,0E0,0E0],"parents":[2147483647,0,0,2,2,3,3],"right_children":[2,-1,4,6,-1,-1,-1],"split_conditions":[1.733228E3,2.1406554E-2,6.757E1,3E0,6.305885E-3,-2.6915051E-2,1.9711738E-3],"split_indices":[0,0,9,12,0,0,0],"split_type":[0,0,0,0,0,0,0],"sum_hessian":[9.06839E0,3.9374561E0,5.130934E0,3.725069E0,1.405865E0,2.2526996E0,1.4723693E0],"tree_param":{"num_deleted":"0","num_feature":"21","num_nodes":"7","size_leaf_vector":"1"}},{"base_weights":[2.0038356E-1,2.1790897E-2,-3.2424968E-1,5.2435277E-3,-5.653853E-1,-2.5308995E-2,-1.564267E-3],"categories":[],"categories_nodes":[],"categories_segments":[],"categories_sizes":[],"default_left":[0,0,0,0,0,0,0],"id":44,"left_children":[1,-1,3,-1,5,-1,-1],"loss_changes":[3.5419197E0,0E0,1.0344648E0,0E0,6.4903915E-1,0E0,0E0],"parents":[2147483647,0,0,2,2,4,4],"right_children":[2,-1,4,-1,6,-1,-1],"split_conditions":[1.733228E3,2.1790897E-2,1.2599E5,5.2435277E-3,-1.7262E1,-2.5308995E-2,-1.564267E-3],"split_indices":[0,0,4,0,9,0,0],"split_type":[0,0,0,0,0,0,0],"sum_hessian":[9.128512E0,4.1743827E0,4.954129E0,1.7932644E0,3.1608648E0,1.2148106E0,1.9460541E0],"tree_param":{"num_deleted":"0","num_feature":"21","num_nodes":"7","size_leaf_vector":"1"}},{"base_weights":[1.4774E-2,2.1072166E-2,-5.562302E-1,-7.274805E-1,3.7163051E-3,1.9970548E-3,-3.059368E-2],"categories":[],"categories_nodes":[],"categories_segments":[],"categories_sizes":[],"default_left":[0,0,0,0,0,0,0],"id":45,"left_children":[1,-1,3,5,-1,-1,-1],"loss_changes":[5.0302005E0,0E0,9.987812E-1,1.5064507E0,0E0,0E0,0E0],"parents":[2147483647,0,0,2,2,3,3],"right_children":[2,-1,4,6,-1,-1,-1],"split_conditions":[1.707368E3,2.1072166E-2,6.757E1,5.007E0,3.7163051E-3,1.9970548E-3,-3.059368E-2],"split_indices":[0,0,9,10,0,0,0],"split_type":[0,0,0,0,0,0,0],"sum_hessian":[8.8211E0,3.7930613E0,5.028039E0,3.9053614E0,1.1226776E0,1.4664161E0,2.4389453E0],"tree_param":{"num_deleted":"0","num_feature":"21","num_nodes":"7","size_leaf_vector":"1"}},{"base_weights":[1.0138651E-1,2.0926598E-2,-4.0842757E-1,-6.312352E-1,6.190611E-3,-1.0221516E-1,-2.7437609E-2,7.499821E-3,-1.2313639E-2],"categories":[],"categories_nodes":[],"categories_segments":[],"categories_sizes":[],"default_left":[0,0,0,0,0,0,0,0,0],"id":46,"left_children":[1,-1,3,5,-1,7,-1,-1,-1],"loss_changes":[3.8619587E0,0E0,1.2330848E0,6.680827E-1,0E0,6.6567224E-1,0E0,0E0,0E0],"parents":[2147483647,0,0,2,2,3,3,5,5],"right_children":[2,-1,4,6,-1,8,-1,-1,-1],"split_conditions":[1.733228E3,2.0926598E-2,6.757E1,5.348E0,6.190611E-3,4.7357683E-4,-2.7437609E-2,7.499821E-3,-1.2313639E-2],"split_indices":[0,0,9,10,0,16,0,0,0],"split_type":[0,0,0,0,0,0,0,0,0],"sum_hessian":[8.831815E0,3.7316241E0,5.10019E0,3.7041965E0,1.3959938E0,2.2412455E0,1.462951E0,1.222398E0,1.0188475E0],"tree_param":{"num_deleted":"0","num_feature":"21","num_nodes":"9","size_leaf_vector":"1"}},{"base_weights":[-1.2922146E-2,2.0464126E-2,-5.611168E-1,-7.794396E-1,4.9578752E-3,2.0772031E-4,-3.0096963E-2],"categories":[],"categories_nodes":[],"categories_segments":[],"categories_sizes":[],"default_left":[0,0,0,0,0,0,0],"id":47,"left_children":[1,-1,3,5,-1,-1,-1],"loss_changes":[4.7537875E0,0E0,1.3596556E0,1.0157692E0,0E0,0E0,0E0],"parents":[2147483647,0,0,2,2,3,3],"right_children":[2,-1,4,6,-1,-1,-1],"split_conditions":[1.733228E3,2.0464126E-2,6.757E1,5.2E-2,4.9578752E-3,2.0772031E-4,-3.0096963E-2],"split_indices":[0,0,9,14,0,0,0],"split_type":[0,0,0,0,0,0,0],"sum_hessian":[8.467129E0,3.517984E0,4.949145E0,3.693054E0,1.256091E0,1.2475445E0,2.4455094E0],"tree_param":{"num_deleted":"0","num_feature":"21","num_nodes":"7","size_leaf_vector":"1"}},{"base_weights":[1.975661E-1,5.122598E-1,-1.695329E-2,-5.2755373E-3,6.5432763E-1,2.2687184E-2,5.003172E-3],"categories":[],"categories_nodes":[],"categories_segments":[],"categories_sizes":[],"default_left":[0,0,0,0,0,0,0],"id":48,"left_children":[1,3,-1,-1,5,-1,-1],"loss_changes":[3.1389763E0,1.0708306E0,0E0,0E0,1.2298918E-1,0E0,0E0],"parents":[2147483647,0,0,1,1,4,4],"right_children":[2,4,-1,-1,6,-1,-1],"split_conditions":[6.37E0,-2.26094E-2,-1.695329E-2,-5.2755373E-3,1.0035251E-2,2.2687184E-2,5.003172E-3],"split_indices":[10,16,0,0,16,0,0],"split_type":[0,0,0,0,0,0,0],"sum_hessian":[8.666301E0,6.5997877E0,2.066513E0,1.0480282E0,5.5517592E0,3.6803088E0,1.8714505E0],"tree_param":{"num_deleted":"0","num_feature":"21","num_nodes":"7","size_leaf_vector":"1"}},{"base_weights":[1.1995108E-1,2.0338293E-2,-3.7855384E-1,-6.083833E-1,6.0309554E-3,-7.340846E-4,-2.3349794E-2],"categories":[],"categories_nodes":[],"categories_segments":[],"categories_sizes":[],"default_left":[0,0,0,0,0,0,0],"id":49,"left_children":[1,-1,3,5,-1,-1,-1],"loss_changes":[3.3217704E0,0E0,1.125891E0,4.8130167E-1,0E0,0E0,0E0],"parents":[2147483647,0,0,2,2,3,3],"right_children":[2,-1,4,6,-1,-1,-1],"split_conditions":[1.733228E3,2.0338293E-2,6.757E1,5E-2,6.0309554E-3,-7.340846E-4,-2.3349794E-2],"split_indices":[0,0,9,13,0,0,0],"split_type":[0,0,0,0,0,0,0],"sum_hessian":[8.096622E0,3.4806814E0,4.6159406E0,3.23411E0,1.3818305E0,1.2448518E0,1.9892584E0],"tree_param":{"num_deleted":"0","num_feature":"21","num_nodes":"7","size_leaf_vector":"1"}},{"base_weights":[3.11745E-2,2.0350982E-2,-4.718127E-1,-6.550464E-1,4.7203023E-3,2.9161526E-4,-2.5051264E-2],"categories":[],"categories_nodes":[],"categories_segments":[],"categories_sizes":[],"default_left":[0,0,0,0,0,0,0],"id":50,"left_children":[1,-1,3,5,-1,-1,-1],"loss_changes":[4.1214595E0,0E0,1.0358449E0,7.295265E-1,0E0,0E0,0E0],"parents":[2147483647,0,0,2,2,3,3],"right_children":[2,-1,4,6,-1,-1,-1],"split_conditions":[1.733228E3,2.0350982E-2,6.757E1,5.2E-2,4.7203023E-3,2.9161526E-4,-2.5051264E-2],"split_indices":[0,0,9,14,0,0,0],"split_type":[0,0,0,0,0,0,0],"sum_hessian":[8.694392E0,3.4972043E0,5.197188E0,3.9612288E0,1.2359592E0,1.2471609E0,2.714068E0],"tree_param":{"num_deleted":"0","num_feature":"21","num_nodes":"7","size_leaf_vector":"1"}},{"base_weights":[1.5278436E-1,2.0191282E-2,-2.9773012E-1,9.811007E-2,-5.372796E-1,-1.2350853E-2,1.5592364E-2,-2.1820124E-2,8.176766E-5],"categories":[],"categories_nodes":[],"categories_segments":[],"categories_sizes":[],"default_left":[0,0,0,0,0,0,0,0,0],"id":51,"left_children":[1,-1,3,5,7,-1,-1,-1,-1],"loss_changes":[2.835745E0,0E0,7.648466E-1,1.3550414E0,4.8030257E-1,0E0,0E0,0E0,0E0],"parents":[2147483647,0,0,2,2,3,3,4,4],"right_children":[2,-1,4,6,8,-1,-1,-1,-1],"split_conditions":[1.733228E3,2.0191282E-2,3.6817216E-3,2E0,1.49E5,-1.2350853E-2,1.5592364E-2,-2.1820124E-2,8.176766E-5],"split_indices":[0,0,16,12,4,0,0,0,0],"split_type":[0,0,0,0,0,0,0,0,0],"sum_hessian":[8.388829E0,3.4346163E0,4.9542127E0,2.3130026E0,2.64121E0,1.0683713E0,1.2446313E0,1.440427E0,1.2007831E0],"tree_param":{"num_deleted":"0","num_feature":"21","num_nodes":"9","size_leaf_vector":"1"}},{"base_weights":[8.867173E-2,2.0028431E-2,-3.8470122E-1,4.379241E-3,-6.252639E-1,-6.2606647E-4,-2.43672E-2],"categories":[],"categories_nodes":[],"categories_segments":[],"categories_sizes":[],"default_left":[0,0,0,0,0,0,0],"id":52,"left_children":[1,-1,3,-1,5,-1,-1],"loss_changes":[3.3408928E0,0E0,1.0690787E0,0E0,5.488663E-1,0E0,0E0],"parents":[2147483647,0,0,2,2,4,4],"right_children":[2,-1,4,-1,6,-1,-1],"split_conditions":[1.733228E3,2.0028431E-2,1.33E-1,4.379241E-3,5.007E0,-6.2606647E-4,-2.43672E-2],"split_indices":[0,0,13,0,10,0,0],"split_type":[0,0,0,0,0,0,0],"sum_hessian":[8.316252E0,3.3718076E0,4.9444437E0,1.7875464E0,3.1568975E0,1.2711535E0,1.885744E0],"tree_param":{"num_deleted":"0","num_feature":"21","num_nodes":"7","size_leaf_vector":"1"}},{"base_weights":[9.456811E-2,2.0447286E-2,-3.6202842E-1,-5.515087E-1,6.010285E-3,1.9492866E-3,-2.7747525E-2,-8.2420865E-3,8.328259E-3],"categories":[],"categories_nodes":[],"categories_segments":[],"categories_sizes":[],"default_left":[0,0,0,0,0,0,0,0,0],"id":53,"left_children":[1,-1,3,5,-1,7,-1,-1,-1],"loss_changes":[3.486578E0,0E0,1.0294921E0,1.2866389E0,0E0,4.955227E-1,0E0,0E0,0E0],"parents":[2147483647,0,0,2,2,3,3,5,5],"right_children":[2,-1,4,6,-1,8,-1,-1,-1],"split_conditions":[1.733228E3,2.0447286E-2,4.059474E-2,5.348E0,6.010285E-3,3E0,-2.7747525E-2,-8.2420865E-3,8.328259E-3],"split_indices":[0,0,18,10,0,12,0,0,0],"split_type":[0,0,0,0,0,0,0,0,0],"sum_hessian":[9.167126E0,3.57963E0,5.5874953E0,4.20824E0,1.3792554E0,2.4969206E0,1.7113193E0,1.2494833E0,1.2474372E0],"tree_param":{"num_deleted":"0","num_feature":"21","num_nodes":"9","size_leaf_vector":"1"}},{"base_weights":[1.5344507E-1,2.0462742E-2,-2.79022E-1,-6.421932E-1,1.7295639E-1,-2.8393383E-3,-2.3039391E-2,1.5209546E-2,-8.473366E-3],"categories":[],"categories_nodes":[],"categories_segments":[],"categories_sizes":[],"default_left":[0,0,0,0,0,0,0,0,0],"id":54,"left_children":[1,-1,3,5,7,-1,-1,-1,-1],"loss_changes":[2.6986432E0,0E0,1.370538E0,1.51034E-1,1.0002228E0,0E0,0E0,0E0,0E0],"parents":[2147483647,0,0,2,2,3,3,4,4],"right_children":[2,-1,4,6,8,-1,-1,-1,-1],"split_conditions":[4.787E0,2.0462742E-2,1.2125E1,1.774198E3,1.807415E3,-2.8393383E-3,-2.3039391E-2,1.5209546E-2,-8.473366E-3],"split_indices":[10,0,9,1,1,0,0,0,0],"split_type":[0,0,0,0,0,0,0,0,0],"sum_hessian":[8.139029E0,3.142827E0,4.9962015E0,2.3035595E0,2.692642E0,1.0850751E0,1.2184843E0,1.4226313E0,1.2700107E0],"tree_param":{"num_deleted":"0","num_feature":"21","num_nodes":"9","size_leaf_vector":"1"}},{"base_weights":[1.5557902E-1,5.546385E-1,-3.9601249E-1,2.2139588E-2,-2.1897492E-3,-1.9128952E-2,5.851634E-3],"categories":[],"categories_nodes":[],"categories_segments":[],"categories_sizes":[],"default_left":[0,0,0,0,0,0,0],"id":55,"left_children":[1,3,5,-1,-1,-1,-1],"loss_changes":[2.6771965E0,8.824401E-1,1.0248866E0,0E0,0E0,0E0,0E0],"parents":[2147483647,0,0,1,1,2,2],"right_children":[2,4,6,-1,-1,-1,-1],"split_conditions":[2.1E-1,4E0,3E0,2.2139588E-2,-2.1897492E-3,-1.9128952E-2,5.851634E-3],"split_indices":[13,12,12,0,0,0,0],"split_type":[0,0,0,0,0,0,0],"sum_hessian":[8.166869E0,4.7322116E0,3.4346573E0,3.3901865E0,1.3420249E0,2.3261855E0,1.1084719E0],"tree_param":{"num_deleted":"0","num_feature":"21","num_nodes":"7","size_leaf_vector":"1"}},{"base_weights":[1.9273202E-1,6.2304014E-1,-3.4045175E-1,3.2068612E-3,2.0490414E-2,-4.79549E-1,1.2634798E-3,-1.2771011E-3,-1.8610777E-2],"categories":[],"categories_nodes":[],"categories_segments":[],"categories_sizes":[],"default_left":[0,0,0,0,0,0,0,0,0],"id":56,"left_children":[1,3,5,-1,-1,7,-1,-1,-1],"loss_changes":[2.6861446E0,4.4734478E-2,3.4351808E-1,0E0,0E0,2.141611E-1,0E0,0E0,0E0],"parents":[2147483647,0,0,1,1,2,2,5,5],"right_children":[2,4,6,-1,-1,8,-1,-1,-1],"split_conditions":[1.776948E3,-1.0698E1,2.5E-1,3.2068612E-3,2.0490414E-2,1E0,1.2634798E-3,-1.2771011E-3,-1.8610777E-2],"split_indices":[1,9,14,0,0,7,0,0,0],"split_type":[0,0,0,0,0,0,0,0,0],"sum_hessian":[7.8587003E0,4.162379E0,3.696321E0,1.0125887E0,3.1497903E0,2.3389163E0,1.3574048E0,1.2047715E0,1.1341447E0],"tree_param":{"num_deleted":"0","num_feature":"21","num_nodes":"9","size_leaf_vector":"1"}},{"base_weights":[1.8851985E-1,4.7166315E-1,-1.7516958E-2,-5.4236283E-3,6.1357445E-1,2.1636425E-2,3.4794123E-3],"categories":[],"categories_nodes":[],"categories_segments":[],"categories_sizes":[],"default_left":[0,0,0,0,0,0,0],"id":57,"left_children":[1,3,-1,-1,5,-1,-1],"loss_changes":[2.6693203E0,9.805937E-1,0E0,0E0,2.1758676E-1,0E0,0E0],"parents":[2147483647,0,0,1,1,4,4],"right_children":[2,4,-1,-1,6,-1,-1],"split_conditions":[6.41E0,-2.26094E-2,-1.7516958E-2,-5.4236283E-3,1.796445E3,2.1636425E-2,3.4794123E-3],"split_indices":[10,16,0,0,0,0,0],"split_type":[0,0,0,0,0,0,0],"sum_hessian":[7.6866217E0,6.1946154E0,1.4920063E0,1.0087761E0,5.1858397E0,3.5245926E0,1.6612469E0],"tree_param":{"num_deleted":"0","num_feature":"21","num_nodes":"7","size_leaf_vector":"1"}},{"base_weights":[2.1640556E-2,1.9233396E-2,-4.186989E-1,7.5518986E-4,-5.998244E-1,-2.3184141E-2,2.74321E-5],"categories":[],"categories_nodes":[],"categories_segments":[],"categories_sizes":[],"default_left":[0,0,0,0,0,0,0],"id":58,"left_children":[1,-1,3,-1,5,-1,-1],"loss_changes":[3.3527935E0,0E0,6.1257946E-1,0E0,5.443871E-1,0E0,0E0],"parents":[2147483647,0,0,2,2,4,4],"right_children":[2,-1,4,-1,6,-1,-1],"split_conditions":[1.733228E3,1.9233396E-2,4.7357683E-4,7.5518986E-4,1.49E5,-2.3184141E-2,2.74321E-5],"split_indices":[0,0,16,0,4,0,0],"split_type":[0,0,0,0,0,0,0],"sum_hessian":[8.323134E0,3.0792787E0,5.2438555E0,2.0187302E0,3.2251253E0,2.0593083E0,1.165817E0],"tree_param":{"num_deleted":"0","num_feature":"21","num_nodes":"7","size_leaf_vector":"1"}},{"base_weights":[-6.0733277E-3,1.8756486E-2,-4.3584338E-1,5.965822E-2,-2.0711932E-2,1.3456276E-2,-1.02200955E-2],"categories":[],"categories_nodes":[],"categories_segments":[],"categories_sizes":[],"default_left":[0,0,0,0,0,0,0],"id":59,"left_children":[1,-1,3,5,-1,-1,-1],"loss_changes":[3.2774584E0,0E0,9.8681486E-1,9.710657E-1,0E0,0E0,0E0],"parents":[2147483647,0,0,2,2,3,3],"right_children":[2,-1,4,6,-1,-1,-1],"split_conditions":[1.707588E3,1.8756486E-2,1.7E-1,1.2599E5,-2.0711932E-2,1.3456276E-2,-1.02200955E-2],"split_indices":[1,0,13,4,0,0,0],"split_type":[0,0,0,0,0,0,0],"sum_hessian":[8.071403E0,2.9008312E0,5.1705713E0,2.2744753E0,2.8960962E0,1.0315442E0,1.2429311E0],"tree_param":{"num_deleted":"0","num_feature":"21","num_nodes":"7","size_leaf_vector":"1"}},{"base_weights":[1.14654414E-1,5.502004E-1,-4.345501E-1,2.126098E-2,5.430554E-4,-2.018389E-2,5.8685467E-3],"categories":[],"categories_nodes":[],"categories_segments":[],"categories_sizes":[],"default_left":[0,0,0,0,0,0,0],"id":60,"left_children":[1,3,5,-1,-1,-1,-1],"loss_changes":[2.9273353E0,5.30362E-1,1.1108799E0,0E0,0E0,0E0,0E0],"parents":[2147483647,0,0,1,1,2,2],"right_children":[2,4,6,-1,-1,-1,-1],"split_conditions":[2.1E-1,5.348E0,3E0,2.126098E-2,5.430554E-4,-2.018389E-2,5.8685467E-3],"split_indices":[13,10,12,0,0,0,0],"split_type":[0,0,0,0,0,0,0],"sum_hessian":[8.238785E0,4.5928245E0,3.64596E0,3.027282E0,1.5655425E0,2.5475307E0,1.0984296E0],"tree_param":{"num_deleted":"0","num_feature":"21","num_nodes":"7","size_leaf_vector":"1"}},{"base_weights":[3.4469284E-2,1.887528E-2,-3.7459114E-1,8.5508645E-2,-6.296811E-1,-4.708272E-3,7.609687E-3,-2.6655733E-4,-2.5135884E-2],"categories":[],"categories_nodes":[],"categories_segments":[],"categories_sizes":[],"default_left":[0,0,0,0,0,0,0,0,0],"id":61,"left_children":[1,-1,3,5,7,-1,-1,-1,-1],"loss_changes":[2.9836638E0,0E0,9.7293913E-1,2.5860298E-1,6.2895656E-1,0E0,0E0,0E0,0E0],"parents":[2147483647,0,0,2,2,3,3,4,4],"right_children":[2,-1,4,6,8,-1,-1,-1,-1],"split_conditions":[1.733228E3,1.887528E-2,1.7E-1,1.794665E3,5.007E0,-4.708272E-3,7.609687E-3,-2.6655733E-4,-2.5135884E-2],"split_indices":[0,0,13,0,10,0,0,0,0],"split_type":[0,0,0,0,0,0,0,0,0],"sum_hessian":[8.327151E0,2.954945E0,5.372206E0,2.3903568E0,2.9818494E0,1.0334744E0,1.3568823E0,1.2725319E0,1.7093174E0],"tree_param":{"num_deleted":"0","num_feature":"21","num_nodes":"9","size_leaf_vector":"1"}},{"base_weights":[7.397992E-2,1.8588927E-2,-3.2441562E-1,-2.3335724E-3,-1.812103E-2,-1.0129752E-2,1.3605948E-2],"categories":[],"categories_nodes":[],"categories_segments":[],"categories_sizes":[],"default_left":[0,0,0,0,0,0,0],"id":62,"left_children":[1,-1,3,5,-1,-1,-1],"loss_changes":[2.547559E0,0E0,6.291614E-1,1.1116816E0,0E0,0E0,0E0],"parents":[2147483647,0,0,2,2,3,3],"right_children":[2,-1,4,6,-1,-1,-1],"split_conditions":[1.733228E3,1.8588927E-2,6.37E0,3.3E-1,-1.812103E-2,-1.0129752E-2,1.3605948E-2],"split_indices":[0,0,10,14,0,0,0],"split_type":[0,0,0,0,0,0,0],"sum_hessian":[7.869695E0,2.8523812E0,5.017314E0,3.2688003E0,1.7485137E0,2.1822138E0,1.0865865E0],"tree_param":{"num_deleted":"0","num_feature":"21","num_nodes":"7","size_leaf_vector":"1"}},{"base_weights":[-2.8738298E-3,1.8061109E-2,-3.9329293E-1,8.6810134E-2,-6.664249E-1,1.3215323E-2,-8.427393E-3,-9.544505E-4,-2.5321126E-2],"categories":[],"categories_nodes":[],"categories_segments":[],"categories_sizes":[],"default_left":[0,0,0,0,0,0,0,0,0],"id":63,"left_children":[1,-1,3,5,7,-1,-1,-1,-1],"loss_changes":[2.8107326E0,0E0,1.0630178E0,8.18349E-1,4.9127865E-1,0E0,0E0,0E0,0E0],"parents":[2147483647,0,0,2,2,3,3,4,4],"right_children":[2,-1,4,6,8,-1,-1,-1,-1],"split_conditions":[1.707368E3,1.8061109E-2,1.7E-1,1.2599E5,-2.895756E-3,1.3215323E-2,-8.427393E-3,-9.544505E-4,-2.5321126E-2],"split_indices":[0,0,13,4,16,0,0,0,0],"split_type":[0,0,0,0,0,0,0,0,0],"sum_hessian":[7.8962245E0,2.67208E0,5.2241445E0,2.389061E0,2.8350835E0,1.0159605E0,1.3731005E0,1.1356518E0,1.6994318E0],"tree_param":{"num_deleted":"0","num_feature":"21","num_nodes":"9","size_leaf_vector":"1"}},{"base_weights":[1.3468434E-1,6.1104864E-1,-4.1312587E-1,2.1034926E-2,1.8778695E-3,-6.4918077E-1,5.968739E-3,-3.3554344E-3,-2.2572488E-2],"categories":[],"categories_nodes":[],"categories_segments":[],"categories_sizes":[],"default_left":[0,0,0,0,0,0,0,0,0],"id":64,"left_children":[1,3,5,-1,-1,7,-1,-1,-1],"loss_changes":[2.9869542E0,2.0353675E-1,1.0699234E0,0E0,0E0,8.258593E-2,0E0,0E0,0E0],"parents":[2147483647,0,0,1,1,2,2,5,5],"right_children":[2,4,6,-1,-1,8,-1,-1,-1],"split_conditions":[2.01E-1,8.068E1,3E0,2.1034926E-2,1.8778695E-3,1.773744E3,5.968739E-3,-3.3554344E-3,-2.2572488E-2],"split_indices":[13,9,12,0,0,1,0,0,0],"split_type":[0,0,0,0,0,0,0,0,0],"sum_hessian":[7.51142E0,3.8942149E0,3.617205E0,2.8663661E0,1.0278487E0,2.5229821E0,1.0942229E0,1.0781482E0,1.4448339E0],"tree_param":{"num_deleted":"0","num_feature":"21","num_nodes":"9","size_leaf_vector":"1"}},{"base_weights":[6.0943067E-2,1.863223E-2,-3.5642543E-1,5.6449943E-3,-6.1824876E-1,-2.203121E-2,-1.7832277E-3],"categories":[],"categories_nodes":[],"categories_segments":[],"categories_sizes":[],"default_left":[0,0,0,0,0,0,0],"id":65,"left_children":[1,-1,3,-1,5,-1,-1],"loss_changes":[2.7190235E0,0E0,1.2094145E0,0E0,2.4317384E-1,0E0,0E0],"parents":[2147483647,0,0,2,2,4,4],"right_children":[2,-1,4,-1,6,-1,-1],"split_conditions":[1.735298E3,1.863223E-2,4.7357683E-4,5.6449943E-3,1.49E5,-2.203121E-2,-1.7832277E-3],"split_indices":[1,0,16,0,4,0,0],"split_type":[0,0,0,0,0,0,0],"sum_hessian":[7.7368417E0,2.8866527E0,4.850189E0,1.7574153E0,3.092774E0,2.040403E0,1.052371E0],"tree_param":{"num_deleted":"0","num_feature":"21","num_nodes":"7","size_leaf_vector":"1"}},{"base_weights":[1.5496261E-2,1.8461358E-2,-3.7327498E-1,-6.38653E-1,1.1572101E-2,-2.279909E-3,-7.2247237E-1,-2.4156012E-2,-4.288909E-3],"categories":[],"categories_nodes":[],"categories_segments":[],"categories_sizes":[],"default_left":[0,0,0,0,0,0,0,0,0],"id":66,"left_children":[1,-1,3,5,-1,-1,7,-1,-1],"loss_changes":[2.6521897E0,0E0,1.8925862E0,1.6856217E-1,0E0,0E0,4.7883987E-3,0E0,0E0],"parents":[2147483647,0,0,2,2,3,3,6,6],"right_children":[2,-1,4,6,-1,-1,8,-1,-1],"split_conditions":[4.787E0,1.8461358E-2,8.4043E1,1.0985E5,1.1572101E-2,-2.279909E-3,1.2125E1,-2.4156012E-2,-4.288909E-3],"split_indices":[10,0,9,4,0,0,9,0,0],"split_type":[0,0,0,0,0,0,0,0,0],"sum_hessian":[7.402312E0,2.4524174E0,4.9498944E0,3.902563E0,1.0473313E0,1.0004144E0,2.9021487E0,1.8580017E0,1.044147E0],"tree_param":{"num_deleted":"0","num_feature":"21","num_nodes":"9","size_leaf_vector":"1"}},{"base_weights":[4.1520063E-2,1.8107528E-2,-3.5268962E-1,-5.1803076E-1,4.6971673E-3,-2.3227869E-2,2.8012197E-3],"categories":[],"categories_nodes":[],"categories_segments":[],"categories_sizes":[],"default_left":[0,0,0,0,0,0,0],"id":67,"left_children":[1,-1,3,5,-1,-1,-1],"loss_changes":[2.5578456E0,0E0,7.447437E-1,1.0354888E0,0E0,0E0,0E0],"parents":[2147483647,0,0,2,2,3,3],"right_children":[2,-1,4,6,-1,-1,-1],"split_conditions":[1.733228E3,1.8107528E-2,6.757E1,3E0,4.6971673E-3,-2.3227869E-2,2.8012197E-3],"split_indices":[0,0,9,12,0,0,0],"split_type":[0,0,0,0,0,0,0],"sum_hessian":[7.6225963E0,2.704405E0,4.9181914E0,3.6867747E0,1.2314163E0,2.2225862E0,1.4641886E0],"tree_param":{"num_deleted":"0","num_feature":"21","num_nodes":"7","size_leaf_vector":"1"}},{"base_weights":[3.785268E-2,1.8843876E-2,-3.3531177E-1,-5.564476E-1,8.644421E-3,6.7882333E-4,-7.2389305E-1,-1.6880685E-3,-2.64097E-2],"categories":[],"categories_nodes":[],"categories_segments":[],"categories_sizes":[],"default_left":[0,0,0,0,0,0,0,0,0],"id":68,"left_children":[1,-1,3,5,-1,-1,7,-1,-1],"loss_changes":[2.643302E0,0E0,1.3525643E0,6.346346E-1,0E0,0E0,4.1011763E-1,0E0,0E0],"parents":[2147483647,0,0,2,2,3,3,6,6],"right_children":[2,-1,4,6,-1,-1,8,-1,-1],"split_conditions":[4.787E0,1.8843876E-2,1.9827E5,1.773458E3,8.644421E-3,6.7882333E-4,3.6817216E-3,-1.6880685E-3,-2.64097E-2],"split_indices":[10,0,4,0,0,0,16,0,0],"split_type":[0,0,0,0,0,0,0,0,0],"sum_hessian":[8.087897E0,2.6033623E0,5.484535E0,4.2072315E0,1.2773038E0,1.3316684E0,2.875563E0,1.0620943E0,1.8134687E0],"tree_param":{"num_deleted":"0","num_feature":"21","num_nodes":"9","size_leaf_vector":"1"}},{"base_weights":[1.7547733E-1,1.7081106E-2,-2.7571222E-1,-1.6605597E-2,5.586387E-3],"categories":[],"categories_nodes":[],"categories_segments":[],"categories_sizes":[],"default_left":[0,0,0,0,0],"id":69,"left_children":[1,-1,3,-1,-1],"loss_changes":[1.9339232E0,0E0,9.24271E-1,0E0,0E0],"parents":[2147483647,0,0,2,2],"right_children":[2,-1,4,-1,-1],"split_conditions":[1.776948E3,1.7081106E-2,1E0,-1.6605597E-2,5.586387E-3],"split_indices":[1,0,19,0,0],"split_type":[0,0,0,0,0],"sum_hessian":[7.1152124E0,3.5191221E0,3.5960903E0,1.9979306E0,1.5981597E0],"tree_param":{"num_deleted":"0","num_feature":"21","num_nodes":"5","size_leaf_vector":"1"}},{"base_weights":[1.920909E-1,5.015373E-1,-2.6518646E-1,2.0857751E-2,-4.3481993E-3,7.076963E-3,-1.635688E-2],"categories":[],"categories_nodes":[],"categories_segments":[],"categories_sizes":[],"default_left":[0,0,0,0,0,0,0],"id":70,"left_children":[1,3,5,-1,-1,-1,-1],"loss_changes":[1.5836357E0,9.83678E-1,9.6818614E-1,0E0,0E0,0E0,0E0],"parents":[2147483647,0,0,1,1,2,2],"right_children":[2,4,6,-1,-1,-1,-1],"split_conditions":[2.1E-1,9.3406594E-1,1.8397438E-4,2.0857751E-2,-4.3481993E-3,7.076963E-3,-1.635688E-2],"split_indices":[13,15,16,0,0,0,0],"split_type":[0,0,0,0,0,0,0],"sum_hessian":[7.311714E0,4.245286E0,3.0664284E0,3.1503496E0,1.0949363E0,1.2123744E0,1.8540541E0],"tree_param":{"num_deleted":"0","num_feature":"21","num_nodes":"7","size_leaf_vector":"1"}},{"base_weights":[6.873594E-2,1.7623812E-2,-2.873048E-1,4.2232955E-3,-4.7383282E-1,-2.1107879E-2,2.6720231E-3],"categories":[],"categories_nodes":[],"categories_segments":[],"categories_sizes":[],"default_left":[0,0,0,0,0,0,0],"id":71,"left_children":[1,-1,3,-1,5,-1,-1],"loss_changes":[2.107109E0,0E0,6.943284E-1,0E0,8.173864E-1,0E0,0E0],"parents":[2147483647,0,0,2,2,4,4],"right_children":[2,-1,4,-1,6,-1,-1],"split_conditions":[1.733228E3,1.7623812E-2,4.7357683E-4,4.2232955E-3,1.49E5,-2.1107879E-2,2.6720231E-3],"split_indices":[0,0,16,0,4,0,0],"split_type":[0,0,0,0,0,0,0],"sum_hessian":[7.5813365E0,2.5566006E0,5.024736E0,1.673839E0,3.350897E0,2.0246038E0,1.3262931E0],"tree_param":{"num_deleted":"0","num_feature":"21","num_nodes":"7","size_leaf_vector":"1"}},{"base_weights":[1.0644441E-1,1.8266527E-2,-2.473039E-1,-5.1293516E-1,1.20370975E-2,7.0116E-4,-2.06585E-2],"categories":[],"categories_nodes":[],"categories_segments":[],"categories_sizes":[],"default_left":[0,0,0,0,0,0,0],"id":72,"left_children":[1,-1,3,5,-1,-1,-1],"loss_changes":[1.9577253E0,0E0,1.5988824E0,5.7555544E-1,0E0,0E0,0E0],"parents":[2147483647,0,0,2,2,3,3],"right_children":[2,-1,4,6,-1,-1,-1],"split_conditions":[4.787E0,1.8266527E-2,8.4043E1,1.773458E3,1.20370975E-2,7.0116E-4,-2.06585E-2],"split_indices":[10,0,9,0,0,0,0],"split_type":[0,0,0,0,0,0,0],"sum_hessian":[7.3203106E0,2.4285266E0,4.8917837E0,3.7670498E0,1.1247342E0,1.3573529E0,2.409697E0],"tree_param":{"num_deleted":"0","num_feature":"21","num_nodes":"7","size_leaf_vector":"1"}},{"base_weights":[1.7745064E-1,-1.1076007E-2,4.2953137E-1,2.0984573E-2,-4.551545E-3],"categories":[],"categories_nodes":[],"categories_segments":[],"categories_sizes":[],"default_left":[0,0,0,0,0],"id":73,"left_children":[1,-1,3,-1,-1],"loss_changes":[1.5509648E0,0E0,1.318825E0,0E0,0E0],"parents":[2147483647,0,0,2,2],"right_children":[2,-1,4,-1,-1],"split_conditions":[-8.968835E-3,-1.1076007E-2,1.807085E3,2.0984573E-2,-4.551545E-3],"split_indices":[18,0,0,0,0],"split_type":[0,0,0,0,0],"sum_hessian":[6.953536E0,1.9012811E0,5.0522547E0,3.172152E0,1.8801029E0],"tree_param":{"num_deleted":"0","num_feature":"21","num_nodes":"5","size_leaf_vector":"1"}},{"base_weights":[9.334517E-2,4.7483325E-1,-3.9643124E-1,2.020402E-2,-4.7836914E-3,2.486542E-4,-1.6373025E-2],"categories":[],"categories_nodes":[],"categories_segments":[],"categories_sizes":[],"default_left":[0,0,0,0,0,0,0],"id":74,"left_children":[1,3,5,-1,-1,-1,-1],"loss_changes":[2.0602834E0,9.676986E-1,3.1341183E-1,0E0,0E0,0E0,0E0],"parents":[2147483647,0,0,1,1,2,2],"right_children":[2,4,6,-1,-1,-1,-1],"split_conditions":[2.1E-1,9.3406594E-1,1.773938E3,2.020402E-2,-4.7836914E-3,2.486542E-4,-1.6373025E-2],"split_indices":[13,15,0,0,0,0,0],"split_type":[0,0,0,0,0,0,0],"sum_hessian":[7.011833E0,3.9759648E0,3.0358686E0,2.9337113E0,1.0422535E0,1.3274127E0,1.7084558E0],"tree_param":{"num_deleted":"0","num_feature":"21","num_nodes":"7","size_leaf_vector":"1"}},{"base_weights":[3.1800058E-2,1.7811228E-2,-2.9726794E-1,-5.3631556E-1,1.1798589E-2,5.247297E-4,-2.0650014E-2],"categories":[],"categories_nodes":[],"categories_segments":[],"categories_sizes":[],"default_left":[0,0,0,0,0,0,0],"id":75,"left_children":[1,-1,3,5,-1,-1,-1],"loss_changes":[2.1738932E0,0E0,1.6670761E0,5.6707346E-1,0E0,0E0,0E0],"parents":[2147483647,0,0,2,2,3,3],"right_children":[2,-1,4,6,-1,-1,-1],"split_conditions":[4.754E0,1.7811228E-2,8.4043E1,1.773458E3,1.1798589E-2,5.247297E-4,-2.0650014E-2],"split_indices":[10,0,9,0,0,0,0],"split_type":[0,0,0,0,0,0,0],"sum_hessian":[7.8477864E0,2.3044133E0,5.543373E0,4.4497294E0,1.0936434E0,1.3395598E0,3.11017E0],"tree_param":{"num_deleted":"0","num_feature":"21","num_nodes":"7","size_leaf_vector":"1"}},{"base_weights":[-2.1978261E-2,1.7514922E-2,-4.177114E-1,-2.068047E-2,-1.167267E-1,-3.8213828E-1,8.505555E-3,-4.4762142E-5,-1.5672376E-2],"categories":[],"categories_nodes":[],"categories_segments":[],"categories_sizes":[],"default_left":[0,0,0,0,0,0,0,0,0],"id":76,"left_children":[1,-1,3,-1,5,7,-1,-1,-1],"loss_changes":[2.7351072E0,0E0,3.9798045E-1,0E0,8.1694466E-1,2.2533786E-1,0E0,0E0,0E0],"parents":[2147483647,0,0,2,2,4,4,5,5],"right_children":[2,-1,4,-1,6,8,-1,-1,-1],"split_conditions":[1.733228E3,1.7514922E-2,-1.7262E1,-2.068047E-2,2.5E-1,1.8854445E-2,8.505555E-3,-4.4762142E-5,-1.5672376E-2],"split_indices":[0,0,9,0,14,17,0,0,0],"split_type":[0,0,0,0,0,0,0,0,0],"sum_hessian":[7.3742137E0,2.5381114E0,4.8361025E0,1.1855353E0,3.650567E0,2.249411E0,1.401156E0,1.1500167E0,1.0993944E0],"tree_param":{"num_deleted":"0","num_feature":"21","num_nodes":"9","size_leaf_vector":"1"}},{"base_weights":[4.2768907E-2,1.7059088E-2,-3.0367768E-1,1.0207926E-1,-5.182269E-1,5.6063356E-3,-1.5621827E-3,-2.046828E-2,-2.8207097E-3],"categories":[],"categories_nodes":[],"categories_segments":[],"categories_sizes":[],"default_left":[0,0,0,0,0,0,0,0,0],"id":77,"left_children":[1,-1,3,5,7,-1,-1,-1,-1],"loss_changes":[2.0431683E0,0E0,7.083679E-1,7.2598726E-2,2.0968342E-1,0E0,0E0,0E0,0E0],"parents":[2147483647,0,0,2,2,3,3,4,4],"right_children":[2,-1,4,6,8,-1,-1,-1,-1],"split_conditions":[1.733228E3,1.7059088E-2,1.2599E5,5.007E0,-1.7262E1,5.6063356E-3,-1.5621827E-3,-2.046828E-2,-2.8207097E-3],"split_indices":[0,0,4,10,9,0,0,0,0],"split_type":[0,0,0,0,0,0,0,0,0],"sum_hessian":[7.3191237E0,2.3974233E0,4.9217005E0,2.064927E0,2.8567731E0,1.0582142E0,1.0067128E0,1.1826674E0,1.6741059E0],"tree_param":{"num_deleted":"0","num_feature":"21","num_nodes":"9","size_leaf_vector":"1"}},{"base_weights":[5.054415E-2,1.6816784E-2,-2.7691808E-1,-4.649831E-1,3.9679236E-3,1.9452723E-3,-2.0447388E-2],"categories":[],"categories_nodes":[],"categories_segments":[],"categories_sizes":[],"default_left":[0,0,0,0,0,0,0],"id":78,"left_children":[1,-1,3,5,-1,-1,-1],"loss_changes":[1.8757983E0,0E0,6.652541E-1,6.932367E-1,0E0,0E0,0E0],"parents":[2147483647,0,0,2,2,3,3],"right_children":[2,-1,4,6,-1,-1,-1],"split_conditions":[1.733228E3,1.6816784E-2,5.589172E-1,5.007E0,3.9679236E-3,1.9452723E-3,-2.0447388E-2],"split_indices":[0,0,15,10,0,0,0],"split_type":[0,0,0,0,0,0,0],"sum_hessian":[7.3726916E0,2.3261323E0,5.0465593E0,3.270606E0,1.7759534E0,1.3556808E0,1.9149251E0],"tree_param":{"num_deleted":"0","num_feature":"21","num_nodes":"7","size_leaf_vector":"1"}},{"base_weights":[-1.738975E-2,1.6965898E-2,-3.7806055E-1,-5.198902E-1,3.7645379E-3,-3.6952816E-2,-2.3775607E-2,7.2765136E-3,-9.157371E-3],"categories":[],"categories_nodes":[],"categories_segments":[],"categories_sizes":[],"default_left":[0,0,0,0,0,0,0,0,0],"id":79,"left_children":[1,-1,3,5,-1,7,-1,-1,-1],"loss_changes":[2.3934774E0,0E0,6.286225E-1,7.091718E-1,0E0,4.6316606E-1,0E0,0E0,0E0],"parents":[2147483647,0,0,2,2,3,3,5,5],"right_children":[2,-1,4,6,-1,8,-1,-1,-1],"split_conditions":[1.733228E3,1.6965898E-2,4.059474E-2,5.348E0,3.7645379E-3,4.7357683E-4,-2.3775607E-2,7.2765136E-3,-9.157371E-3],"split_indices":[0,0,18,10,0,16,0,0,0],"split_type":[0,0,0,0,0,0,0,0,0],"sum_hessian":[7.350498E0,2.375386E0,4.975112E0,3.8311124E0,1.1439995E0,2.201845E0,1.6292675E0,1.1723781E0,1.029467E0],"tree_param":{"num_deleted":"0","num_feature":"21","num_nodes":"9","size_leaf_vector":"1"}},{"base_weights":[8.748348E-2,1.6912675E-2,-2.1772026E-1,-4.5365694E-1,1.7821155E-1,2.1553615E-3,-2.0415131E-2,1.1811386E-2,-4.6366616E-3],"categories":[],"categories_nodes":[],"categories_segments":[],"categories_sizes":[],"default_left":[0,0,0,0,0,0,0,0,0],"id":80,"left_children":[1,-1,3,5,7,-1,-1,-1,-1],"loss_changes":[1.558675E0,0E0,8.1079906E-1,6.840658E-1,4.1073552E-1,0E0,0E0,0E0,0E0],"parents":[2147483647,0,0,2,2,3,3,4,4],"right_children":[2,-1,4,6,8,-1,-1,-1,-1],"split_conditions":[4.787E0,1.6912675E-2,5.589172E-1,4.2696628E-1,7.7032965E-1,2.1553615E-3,-2.0415131E-2,1.1811386E-2,-4.6366616E-3],"split_indices":[10,0,15,15,15,0,0,0,0],"split_type":[0,0,0,0,0,0,0,0,0],"sum_hessian":[7.034067E0,2.0854373E0,4.94863E0,2.9181225E0,2.0305073E0,1.291916E0,1.6262065E0,1.0100782E0,1.0204291E0],"tree_param":{"num_deleted":"0","num_feature":"21","num_nodes":"9","size_leaf_vector":"1"}},{"base_weights":[3.6563408E-2,1.6157037E-2,-2.7700835E-1,2.8969801E-3,-4.583247E-1,-1.9870874E-2,-1.4027455E-3],"categories":[],"categories_nodes":[],"categories_segments":[],"categories_sizes":[],"default_left":[0,0,0,0,0,0,0],"id":81,"left_children":[1,-1,3,-1,5,-1,-1],"loss_changes":[1.7172378E0,0E0,5.5377173E-1,0E0,3.5561264E-1,0E0,0E0],"parents":[2147483647,0,0,2,2,4,4],"right_children":[2,-1,4,-1,6,-1,-1],"split_conditions":[1.733228E3,1.6157037E-2,1.2599E5,2.8969801E-3,-1.7262E1,-1.9870874E-2,-1.4027455E-3],"split_indices":[0,0,4,0,9,0,0],"split_type":[0,0,0,0,0,0,0],"sum_hessian":[7.0135455E0,2.1448119E0,4.868734E0,1.8963764E0,2.9723573E0,1.1723943E0,1.799963E0],"tree_param":{"num_deleted":"0","num_feature":"21","num_nodes":"7","size_leaf_vector":"1"}},{"base_weights":[1.4612071E-2,1.6902251E-2,-3.234605E-1,-6.1979795E-1,1.4678997E-1,-1.9649875E-3,-2.265615E-2,-7.3362417E-3,1.2890738E-2],"categories":[],"categories_nodes":[],"categories_segments":[],"categories_sizes":[],"default_left":[0,0,0,0,0,0,0,0,0],"id":82,"left_children":[1,-1,3,5,7,-1,-1,-1,-1],"loss_changes":[1.9902196E0,0E0,1.114625E0,2.3796272E-1,6.7560005E-1,0E0,0E0,0E0,0E0],"parents":[2147483647,0,0,2,2,3,3,4,4],"right_children":[2,-1,4,6,8,-1,-1,-1,-1],"split_conditions":[4.754E0,1.6902251E-2,1.531E1,1.773458E3,3.7189335E-1,-1.9649875E-3,-2.265615E-2,-7.3362417E-3,1.2890738E-2],"split_indices":[10,0,9,0,15,0,0,0,0],"split_type":[0,0,0,0,0,0,0,0,0],"sum_hessian":[6.7625327E0,2.069703E0,4.6928296E0,2.4885736E0,2.204256E0,1.0711583E0,1.4174151E0,1.0386723E0,1.1655838E0],"tree_param":{"num_deleted":"0","num_feature":"21","num_nodes":"9","size_leaf_vector":"1"}},{"base_weights":[1.1367831E-1,-1.3758376E-2,3.7607026E-1,6.00574E-1,-7.5202E-3,1.993206E-2,3.2342393E-3],"categories":[],"categories_nodes":[],"categories_segments":[],"categories_sizes":[],"default_left":[0,0,0,0,0,0,0],"id":83,"left_children":[1,-1,3,5,-1,-1,-1],"loss_changes":[1.6209528E0,0E0,1.2754946E0,3.5633326E-2,0E0,0E0,0E0],"parents":[2147483647,0,0,2,2,3,3],"right_children":[2,-1,4,6,-1,-1,-1],"split_conditions":[-1.7262E1,-1.3758376E-2,1.811758E3,1.8400285E-2,-7.5202E-3,1.993206E-2,3.2342393E-3],"split_indices":[9,0,1,16,0,0,0],"split_type":[0,0,0,0,0,0,0],"sum_hessian":[6.4974256E0,1.5723708E0,4.925055E0,3.6876307E0,1.2374241E0,2.6480112E0,1.0396194E0],"tree_param":{"num_deleted":"0","num_feature":"21","num_nodes":"7","size_leaf_vector":"1"}},{"base_weights":[2.8997963E-2,4.657755E-1,-4.685992E-1,1.9163197E-2,-1.0670968E-3,-6.211537E-4,-1.7811177E-2],"categories":[],"categories_nodes":[],"categories_segments":[],"categories_sizes":[],"default_left":[0,0,0,0,0,0,0],"id":84,"left_children":[1,3,5,-1,-1,-1,-1],"loss_changes":[2.3368526E0,5.362904E-1,2.6030588E-1,0E0,0E0,0E0,0E0],"parents":[2147483647,0,0,1,1,2,2],"right_children":[2,4,6,-1,-1,-1,-1],"split_conditions":[2.1E-1,5.348E0,1.774198E3,1.9163197E-2,-1.0670968E-3,-6.211537E-4,-1.7811177E-2],"split_indices":[13,10,1,0,0,0,0],"split_type":[0,0,0,0,0,0,0],"sum_hessian":[6.7436037E0,3.65939E0,3.084214E0,2.3130105E0,1.3463796E0,1.1823359E0,1.901878E0],"tree_param":{"num_deleted":"0","num_feature":"21","num_nodes":"7","size_leaf_vector":"1"}},{"base_weights":[9.968204E-2,4.767832E-1,-3.3148697E-1,1.887883E-2,6.8730407E-4,-1.6445715E-2,6.0870512E-3],"categories":[],"categories_nodes":[],"categories_segments":[],"categories_sizes":[],"default_left":[0,0,0,0,0,0,0],"id":85,"left_children":[1,3,5,-1,-1,-1,-1],"loss_changes":[1.8231678E0,3.7020302E-1,8.5986614E-1,0E0,0E0,0E0,0E0],"parents":[2147483647,0,0,1,1,2,2],"right_children":[2,4,6,-1,-1,-1,-1],"split_conditions":[2.1E-1,5.348E0,3E0,1.887883E-2,6.8730407E-4,-1.6445715E-2,6.0870512E-3],"split_indices":[13,10,12,0,0,0,0],"split_type":[0,0,0,0,0,0,0],"sum_hessian":[7.268914E0,3.7647092E0,3.504205E0,2.239269E0,1.5254403E0,2.4564276E0,1.0477774E0],"tree_param":{"num_deleted":"0","num_feature":"21","num_nodes":"7","size_leaf_vector":"1"}},{"base_weights":[4.0102437E-2,1.4892764E-2,-3.3304653E-1,5.469219E-3,-5.23909E-1,5.2765678E-5,-2.168992E-2],"categories":[],"categories_nodes":[],"categories_segments":[],"categories_sizes":[],"default_left":[0,0,0,0,0,0,0],"id":86,"left_children":[1,-1,3,-1,5,-1,-1],"loss_changes":[1.8445508E0,0E0,7.898604E-1,0E0,5.21526E-1,0E0,0E0],"parents":[2147483647,0,0,2,2,4,4],"right_children":[2,-1,4,-1,6,-1,-1],"split_conditions":[1.774198E3,1.4892764E-2,4.7357683E-4,5.469219E-3,1.7E-1,5.2765678E-5,-2.168992E-2],"split_indices":[1,0,16,0,13,0,0],"split_type":[0,0,0,0,0,0,0],"sum_hessian":[6.89075E0,2.802654E0,4.0880957E0,1.1290796E0,2.959016E0,1.3573734E0,1.6016427E0],"tree_param":{"num_deleted":"0","num_feature":"21","num_nodes":"7","size_leaf_vector":"1"}},{"base_weights":[1.5218839E-1,-1.1549749E-2,4.041453E-1,5.392988E-1,-3.152011E-3,2.7490659E-3,1.9118356E-2],"categories":[],"categories_nodes":[],"categories_segments":[],"categories_sizes":[],"default_left":[0,0,0,0,0,0,0],"id":87,"left_children":[1,-1,3,5,-1,-1,-1],"loss_changes":[1.4417164E0,0E0,5.717945E-1,1.2841702E-1,0E0,0E0,0E0],"parents":[2147483647,0,0,2,2,3,3],"right_children":[2,-1,4,6,-1,-1,-1],"split_conditions":[-8.968835E-3,-1.1549749E-2,2.8027108E-2,3.7189335E-1,-3.152011E-3,2.7490659E-3,1.9118356E-2],"split_indices":[18,0,16,15,0,0,0],"split_type":[0,0,0,0,0,0,0],"sum_hessian":[6.352884E0,1.6911938E0,4.66169E0,3.5905342E0,1.0711561E0,1.3397598E0,2.2507741E0],"tree_param":{"num_deleted":"0","num_feature":"21","num_nodes":"7","size_leaf_vector":"1"}},{"base_weights":[1.7436747E-2,1.6678747E-2,-3.0333355E-1,-4.8408797E-1,6.6663963E-3,1.2203741E-3,-1.9201908E-2],"categories":[],"categories_nodes":[],"categories_segments":[],"categories_sizes":[],"default_left":[0,0,0,0,0,0,0],"id":88,"left_children":[1,-1,3,5,-1,-1,-1],"loss_changes":[1.878985E0,0E0,8.693965E-1,5.2303874E-1,0E0,0E0,0E0],"parents":[2147483647,0,0,2,2,3,3],"right_children":[2,-1,4,6,-1,-1,-1],"split_conditions":[4.787E0,1.6678747E-2,1.9751E5,1.776568E3,6.6663963E-3,1.2203741E-3,-1.9201908E-2],"split_indices":[10,0,4,0,0,0,0],"split_type":[0,0,0,0,0,0,0],"sum_hessian":[6.924906E0,2.0376413E0,4.8872647E0,3.753928E0,1.1333368E0,1.198859E0,2.555069E0],"tree_param":{"num_deleted":"0","num_feature":"21","num_nodes":"7","size_leaf_vector":"1"}},{"base_weights":[1.6196657E-2,1.6419142E-2,-2.7596247E-1,-4.659941E-1,8.307187E-3,-1.9894225E-5,-5.804973E-1,-3.5040712E-3,-2.0248666E-2],"categories":[],"categories_nodes":[],"categories_segments":[],"categories_sizes":[],"default_left":[0,0,0,0,0,0,0,0,0],"id":89,"left_children":[1,-1,3,5,-1,-1,7,-1,-1],"loss_changes":[1.7470728E0,0E0,1.0289476E0,3.2989252E-1,0E0,0E0,6.0367107E-2,0E0,0E0],"parents":[2147483647,0,0,2,2,3,3,6,6],"right_children":[2,-1,4,6,-1,-1,8,-1,-1],"split_conditions":[4.787E0,1.6419142E-2,1.9827E5,1.773458E3,8.307187E-3,-1.9894225E-5,1.0985E5,-3.5040712E-3,-2.0248666E-2],"split_indices":[10,0,4,0,0,0,4,0,0],"split_type":[0,0,0,0,0,0,0,0,0],"sum_hessian":[7.3124933E0,1.9752038E0,5.33729E0,4.205907E0,1.1313827E0,1.2278038E0,2.9781032E0,1.260994E0,1.7171093E0],"tree_param":{"num_deleted":"0","num_feature":"21","num_nodes":"9","size_leaf_vector":"1"}},{"base_weights":[-4.065611E-2,1.6131649E-2,-3.5281184E-1,-5.5109274E-1,7.7787163E-3,-2.3697568E-2,-6.81349E-2,6.8750223E-3,-9.369349E-3],"categories":[],"categories_nodes":[],"categories_segments":[],"categories_sizes":[],"default_left":[0,0,0,0,0,0,0,0,0],"id":90,"left_children":[1,-1,3,5,-1,-1,7,-1,-1],"loss_changes":[1.9840543E0,0E0,1.1329343E0,5.742738E-1,0E0,0E0,4.4404677E-1,0E0,0E0],"parents":[2147483647,0,0,2,2,3,3,6,6],"right_children":[2,-1,4,6,-1,-1,8,-1,-1],"split_conditions":[4.787E0,1.6131649E-2,1.9827E5,1.531E1,7.7787163E-3,-2.3697568E-2,1.809111E3,6.8750223E-3,-9.369349E-3],"split_indices":[10,0,4,9,0,0,0,0,0],"split_type":[0,0,0,0,0,0,0,0,0],"sum_hessian":[6.8877273E0,1.907746E0,4.9799814E0,3.9120717E0,1.0679096E0,1.7670709E0,2.1450007E0,1.0227135E0,1.1222872E0],"tree_param":{"num_deleted":"0","num_feature":"21","num_nodes":"9","size_leaf_vector":"1"}},{"base_weights":[8.684005E-2,4.4347998E-1,-3.1596187E-1,1.9158792E-2,-4.423496E-3,-1.6043648E-2,6.254037E-3],"categories":[],"categories_nodes":[],"categories_segments":[],"categories_sizes":[],"default_left":[0,0,0,0,0,0,0],"id":91,"left_children":[1,3,5,-1,-1,-1,-1],"loss_changes":[1.5916796E0,8.42651E-1,8.489807E-1,0E0,0E0,0E0,0E0],"parents":[2147483647,0,0,1,1,2,2],"right_children":[2,4,6,-1,-1,-1,-1],"split_conditions":[2.1E-1,9.4202125E-1,3E0,1.9158792E-2,-4.423496E-3,-1.6043648E-2,6.254037E-3],"split_indices":[13,15,12,0,0,0,0],"split_type":[0,0,0,0,0,0,0],"sum_hessian":[7.1290374E0,3.6740584E0,3.454979E0,2.6406062E0,1.0334523E0,2.4099047E0,1.0450742E0],"tree_param":{"num_deleted":"0","num_feature":"21","num_nodes":"7","size_leaf_vector":"1"}},{"base_weights":[-3.312099E-2,1.4844888E-2,-3.1167904E-1,1.8568723E-3,-4.873216E-1,-2.288417E-2,3.6876916E-3],"categories":[],"categories_nodes":[],"categories_segments":[],"categories_sizes":[],"default_left":[0,0,0,0,0,0,0],"id":92,"left_children":[1,-1,3,-1,5,-1,-1],"loss_changes":[1.6104174E0,0E0,5.211025E-1,0E0,1.0284266E0,0E0,0E0],"parents":[2147483647,0,0,2,2,4,4],"right_children":[2,-1,4,-1,6,-1,-1],"split_conditions":[1.707368E3,1.4844888E-2,4.7357683E-4,1.8568723E-3,1.49E5,-2.288417E-2,3.6876916E-3],"split_indices":[0,0,16,0,4,0,0],"split_type":[0,0,0,0,0,0,0],"sum_hessian":[6.852972E0,1.8306158E0,5.022356E0,2.0203898E0,3.0019665E0,1.723792E0,1.2781744E0],"tree_param":{"num_deleted":"0","num_feature":"21","num_nodes":"7","size_leaf_vector":"1"}},{"base_weights":[-4.8802696E-2,1.5877737E-2,-3.7904936E-1,-6.1496073E-1,8.089401E-3,-2.2732763E-2,-3.5461718E-3],"categories":[],"categories_nodes":[],"categories_segments":[],"categories_sizes":[],"default_left":[0,0,0,0,0,0,0],"id":93,"left_children":[1,-1,3,5,-1,-1,-1],"loss_changes":[1.9862835E0,0E0,1.3186412E0,1.995933E-1,0E0,0E0,0E0],"parents":[2147483647,0,0,2,2,3,3],"right_children":[2,-1,4,6,-1,-1,-1],"split_conditions":[4.754E0,1.5877737E-2,1.9827E5,5.589172E-1,8.089401E-3,-2.2732763E-2,-3.5461718E-3],"split_indices":[10,0,4,15,0,0,0],"split_type":[0,0,0,0,0,0,0],"sum_hessian":[6.302946E0,1.8534524E0,4.4494934E0,3.3391528E0,1.1103406E0,1.7773871E0,1.5617657E0],"tree_param":{"num_deleted":"0","num_feature":"21","num_nodes":"7","size_leaf_vector":"1"}},{"base_weights":[1.2323028E-2,1.5310751E-2,-2.837659E-1,-4.2031178E-1,4.057969E-3,-1.950612E-2,3.1396726E-3],"categories":[],"categories_nodes":[],"categories_segments":[],"categories_sizes":[],"default_left":[0,0,0,0,0,0,0],"id":94,"left_children":[1,-1,3,5,-1,-1,-1],"loss_changes":[1.5664947E0,0E0,4.9796003E-1,8.0615604E-1,0E0,0E0,0E0],"parents":[2147483647,0,0,2,2,3,3],"right_children":[2,-1,4,6,-1,-1,-1],"split_conditions":[1.735298E3,1.5310751E-2,6.757E1,3E0,4.057969E-3,-1.950612E-2,3.1396726E-3],"split_indices":[1,0,9,12,0,0,0],"split_type":[0,0,0,0,0,0,0],"sum_hessian":[6.6587954E0,1.9430921E0,4.715703E0,3.5521026E0,1.1636007E0,2.1384974E0,1.4136051E0],"tree_param":{"num_deleted":"0","num_feature":"21","num_nodes":"7","size_leaf_vector":"1"}},{"base_weights":[9.692191E-2,1.5896173E-2,-1.8421997E-1,-4.1732255E-1,1.12152845E-2,1.6636053E-3,-1.7442413E-2],"categories":[],"categories_nodes":[],"categories_segments":[],"categories_sizes":[],"default_left":[0,0,0,0,0,0,0],"id":95,"left_children":[1,-1,3,5,-1,-1,-1],"loss_changes":[1.2313514E0,0E0,1.17645E0,5.014225E-1,0E0,0E0,0E0],"parents":[2147483647,0,0,2,2,3,3],"right_children":[2,-1,4,6,-1,-1,-1],"split_conditions":[4.787E0,1.5896173E-2,8.4043E1,-5.6643243E-5,1.12152845E-2,1.6636053E-3,-1.7442413E-2],"split_indices":[10,0,9,16,0,0,0],"split_type":[0,0,0,0,0,0,0],"sum_hessian":[6.5123277E0,1.8673028E0,4.645025E0,3.632232E0,1.0127928E0,1.2770209E0,2.355211E0],"tree_param":{"num_deleted":"0","num_feature":"21","num_nodes":"7","size_leaf_vector":"1"}},{"base_weights":[1.7022558E-4,1.5721966E-2,-2.9572535E-1,-4.8224196E-1,5.490773E-3,-2.0258209E-2,1.6145896E-3],"categories":[],"categories_nodes":[],"categories_segments":[],"categories_sizes":[],"default_left":[0,0,0,0,0,0,0],"id":96,"left_children":[1,-1,3,5,-1,-1,-1],"loss_changes":[1.6446788E0,0E0,7.8202534E-1,6.345663E-1,0E0,0E0,0E0],"parents":[2147483647,0,0,2,2,3,3],"right_children":[2,-1,4,6,-1,-1,-1],"split_conditions":[4.787E0,1.5721966E-2,6.757E1,3E0,5.490773E-3,-2.0258209E-2,1.6145896E-3],"split_indices":[10,0,9,12,0,0,0],"split_type":[0,0,0,0,0,0,0],"sum_hessian":[6.6100802E0,1.8291903E0,4.78089E0,3.4300094E0,1.3508805E0,2.1400173E0,1.2899921E0],"tree_param":{"num_deleted":"0","num_feature":"21","num_nodes":"7","size_leaf_vector":"1"}},{"base_weights":[1.2890474E-2,1.3813761E-2,-3.4439316E-1,1.8203019E-3,-1.6806228E-2],"categories":[],"categories_nodes":[],"categories_segments":[],"categories_sizes":[],"default_left":[0,0,0,0,0],"id":97,"left_children":[1,-1,3,-1,-1],"loss_changes":[1.6610312E0,0E0,5.765546E-1,0E0,0E0],"parents":[2147483647,0,0,2,2],"right_children":[2,-1,4,-1,-1],"split_conditions":[1.773938E3,1.3813761E-2,1E0,1.8203019E-3,-1.6806228E-2],"split_indices":[0,0,20,0,0],"split_type":[0,0,0,0,0],"sum_hessian":[6.4039993E0,2.586431E0,3.8175683E0,1.8266877E0,1.9908806E0],"tree_param":{"num_deleted":"0","num_feature":"21","num_nodes":"5","size_leaf_vector":"1"}},{"base_weights":[-1.1322364E-2,1.5670987E-2,-2.9971707E-1,-4.765516E-1,5.381535E-3,-1.9735858E-2,2.2020834E-3],"categories":[],"categories_nodes":[],"categories_segments":[],"categories_sizes":[],"default_left":[0,0,0,0,0,0,0],"id":98,"left_children":[1,-1,3,5,-1,-1,-1],"loss_changes":[1.6704594E0,0E0,7.6368034E-1,6.6063714E-1,0E0,0E0,0E0],"parents":[2147483647,0,0,2,2,3,3],"right_children":[2,-1,4,6,-1,-1,-1],"split_conditions":[4.787E0,1.5670987E-2,6.757E1,5.589172E-1,5.381535E-3,-1.9735858E-2,2.2020834E-3],"split_indices":[10,0,9,15,0,0,0],"split_type":[0,0,0,0,0,0,0],"sum_hessian":[6.8188486E0,1.8229015E0,4.9959474E0,3.6568596E0,1.3390877E0,2.455049E0,1.2018107E0],"tree_param":{"num_deleted":"0","num_feature":"21","num_nodes":"7","size_leaf_vector":"1"}},{"base_weights":[-4.4284454E-3,1.4606821E-2,-2.839847E-1,-4.759794E-1,3.6569198E-3,-4.403448E-4,-1.7883489E-2],"categories":[],"categories_nodes":[],"categories_segments":[],"categories_sizes":[],"default_left":[0,0,0,0,0,0,0],"id":99,"left_children":[1,-1,3,5,-1,-1,-1],"loss_changes":[1.4289694E0,0E0,6.312036E-1,2.538147E-1,0E0,0E0,0E0],"parents":[2147483647,0,0,2,2,3,3],"right_children":[2,-1,4,6,-1,-1,-1],"split_conditions":[1.735298E3,1.4606821E-2,5.589172E-1,4.94E0,3.6569198E-3,-4.403448E-4,-1.7883489E-2],"split_indices":[1,0,15,10,0,0,0],"split_type":[0,0,0,0,0,0,0],"sum_hessian":[6.390311E0,1.779496E0,4.610815E0,2.8956673E0,1.7151476E0,1.0620334E0,1.8336339E0],"tree_param":{"num_deleted":"0","num_feature":"21","num_nodes":"7","size_leaf_vector":"1"}},{"base_weights":[3.4336086E-2,1.4997884E-2,-2.508233E-1,-1.5300087E-2,9.070091E-2,9.324314E-3,-6.074372E-3],"categories":[],"categories_nodes":[],"categories_segments":[],"categories_sizes":[],"default_left":[0,0,0,0,0,0,0],"id":100,"left_children":[1,-1,3,-1,5,-1,-1],"loss_changes":[1.371811E0,0E0,6.7390484E-1,0E0,4.1831797E-1,0E0,0E0],"parents":[2147483647,0,0,2,2,4,4],"right_children":[2,-1,4,-1,6,-1,-1],"split_conditions":[1.733228E3,1.4997884E-2,1.2125E1,-1.5300087E-2,1.9317059E-2,9.324314E-3,-6.074372E-3],"split_indices":[0,0,9,0,17,0,0],"split_type":[0,0,0,0,0,0,0],"sum_hessian":[6.4434543E0,1.8752795E0,4.568175E0,2.0362527E0,2.5319223E0,1.3774836E0,1.1544386E0],"tree_param":{"num_deleted":"0","num_feature":"21","num_nodes":"7","size_leaf_vector":"1"}},{"base_weights":[-3.2467276E-2,1.4610595E-2,-3.127883E-1,-4.4798416E-1,3.8521327E-3,2.2468225E-3,-1.9653136E-2],"categories":[],"categories_nodes":[],"categories_segments":[],"categories_sizes":[],"default_left":[0,0,0,0,0,0,0],"id":101,"left_children":[1,-1,3,5,-1,-1,-1],"loss_changes":[1.5522169E0,0E0,5.195878E-1,7.0860124E-1,0E0,0E0,0E0],"parents":[2147483647,0,0,2,2,3,3],"right_children":[2,-1,4,6,-1,-1,-1],"split_conditions":[1.733228E3,1.4610595E-2,6.757E1,1E-1,3.8521327E-3,2.2468225E-3,-1.9653136E-2],"split_indices":[0,0,9,13,0,0,0],"split_type":[0,0,0,0,0,0,0],"sum_hessian":[6.566967E0,1.7847548E0,4.7822123E0,3.6369464E0,1.1452658E0,1.3941647E0,2.2427816E0],"tree_param":{"num_deleted":"0","num_feature":"21","num_nodes":"7","size_leaf_vector":"1"}},{"base_weights":[2.7366758E-3,1.456564E-2,-2.9894376E-1,-4.890301E-1,3.2461053E-3,1.2220168E-3,-2.0728488E-2],"categories":[],"categories_nodes":[],"categories_segments":[],"categories_sizes":[],"default_left":[0,0,0,0,0,0,0],"id":102,"left_children":[1,-1,3,5,-1,-1,-1],"loss_changes":[1.4314017E0,0E0,5.748034E-1,5.369407E-1,0E0,0E0,0E0],"parents":[2147483647,0,0,2,2,3,3],"right_children":[2,-1,4,6,-1,-1,-1],"split_conditions":[1.733228E3,1.456564E-2,1.531E1,5.016E0,3.2461053E-3,1.2220168E-3,-2.0728488E-2],"split_indices":[0,0,9,10,0,0,0],"split_type":[0,0,0,0,0,0,0],"sum_hessian":[5.8348126E0,1.7751803E0,4.0596323E0,2.4933336E0,1.5662986E0,1.1286628E0,1.3646709E0],"tree_param":{"num_deleted":"0","num_feature":"21","num_nodes":"7","size_leaf_vector":"1"}},{"base_weights":[6.0789235E-2,1.5294883E-2,-1.9724955E-1,-3.6463416E-1,7.921575E-3,-1.5148866E-2,1.6799278E-3],"categories":[],"categories_nodes":[],"categories_segments":[],"categories_sizes":[],"default_left":[0,0,0,0,0,0,0],"id":103,"left_children":[1,-1,3,5,-1,-1,-1],"loss_changes":[1.2109665E0,0E0,7.312808E-1,4.0830976E-1,0E0,0E0,0E0],"parents":[2147483647,0,0,2,2,3,3],"right_children":[2,-1,4,6,-1,-1,-1],"split_conditions":[4.787E0,1.5294883E-2,1.9827E5,3.3E-1,7.921575E-3,-1.5148866E-2,1.6799278E-3],"split_indices":[10,0,4,14,0,0,0],"split_type":[0,0,0,0,0,0,0],"sum_hessian":[6.715294E0,1.7384548E0,4.976839E0,3.9593043E0,1.0175347E0,2.6681917E0,1.2911128E0],"tree_param":{"num_deleted":"0","num_feature":"21","num_nodes":"7","size_leaf_vector":"1"}},{"base_weights":[1.0531971E-1,4.4652912E-1,-2.8885847E-1,1.7841013E-2,3.524257E-4,-1.5360086E-2,6.5116542E-3],"categories":[],"categories_nodes":[],"categories_segments":[],"categories_sizes":[],"default_left":[0,0,0,0,0,0,0],"id":104,"left_children":[1,3,5,-1,-1,-1,-1],"loss_changes":[1.4196197E0,3.3488286E-1,8.117693E-1,0E0,0E0,0E0,0E0],"parents":[2147483647,0,0,1,1,2,2],"right_children":[2,4,6,-1,-1,-1,-1],"split_conditions":[2.1E-1,5.348E0,3E0,1.7841013E-2,3.524257E-4,-1.5360086E-2,6.5116542E-3],"split_indices":[13,10,12,0,0,0,0],"split_type":[0,0,0,0,0,0,0],"sum_hessian":[6.636993E0,3.415146E0,3.221847E0,1.9984546E0,1.4166914E0,2.2190247E0,1.0028223E0],"tree_param":{"num_deleted":"0","num_feature":"21","num_nodes":"7","size_leaf_vector":"1"}},{"base_weights":[1.12344E-1,1.3812141E-2,-1.9367327E-1,5.5036475E-3,-3.5610974E-1,-1.6738884E-2,3.234187E-3],"categories":[],"categories_nodes":[],"categories_segments":[],"categories_sizes":[],"default_left":[0,0,0,0,0,0,0],"id":105,"left_children":[1,-1,3,-1,5,-1,-1],"loss_changes":[1.0769297E0,0E0,4.919184E-1,0E0,5.699627E-1,0E0,0E0],"parents":[2147483647,0,0,2,2,4,4],"right_children":[2,-1,4,-1,6,-1,-1],"split_conditions":[1.773938E3,1.3812141E-2,4.7357683E-4,5.5036475E-3,1.49E5,-1.6738884E-2,3.234187E-3],"split_indices":[0,0,16,0,4,0,0],"split_type":[0,0,0,0,0,0,0],"sum_hessian":[6.4365015E0,2.5393085E0,3.897193E0,1.0953448E0,2.8018482E0,1.6698409E0,1.1320074E0],"tree_param":{"num_deleted":"0","num_feature":"21","num_nodes":"7","size_leaf_vector":"1"}},{"base_weights":[-6.499589E-2,3.6024004E-1,-4.3634966E-1,-1.4632421E-3,1.4876987E-2,-3.5659317E-4,-1.6069116E-2],"categories":[],"categories_nodes":[],"categories_segments":[],"categories_sizes":[],"default_left":[0,0,0,0,0,0,0],"id":106,"left_children":[1,3,5,-1,-1,-1,-1],"loss_changes":[1.5614738E0,3.134418E-1,2.0305246E-1,0E0,0E0,0E0,0E0],"parents":[2147483647,0,0,1,1,2,2],"right_children":[2,4,6,-1,-1,-1,-1],"split_conditions":[1.776948E3,-1.7600551E-2,3.6817216E-3,-1.4632421E-3,1.4876987E-2,-3.5659317E-4,-1.6069116E-2],"split_indices":[1,17,16,0,0,0,0],"split_type":[0,0,0,0,0,0,0],"sum_hessian":[5.8973413E0,2.7771227E0,3.1202188E0,1.0107191E0,1.7664036E0,1.0160303E0,2.1041882E0],"tree_param":{"num_deleted":"0","num_feature":"21","num_nodes":"7","size_leaf_vector":"1"}},{"base_weights":[7.047739E-2,1.3089005E-2,-2.3285902E-1,6.524673E-3,-4.4994992E-1,-8.0733816E-4,-1.774273E-2],"categories":[],"categories_nodes":[],"categories_segments":[],"categories_sizes":[],"default_left":[0,0,0,0,0,0,0],"id":107,"left_children":[1,-1,3,-1,5,-1,-1],"loss_changes":[1.1027718E0,0E0,7.564951E-1,0E0,2.3880237E-1,0E0,0E0],"parents":[2147483647,0,0,2,2,4,4],"right_children":[2,-1,4,-1,6,-1,-1],"split_conditions":[1.773938E3,1.3089005E-2,3.6817216E-3,6.524673E-3,1.3E-1,-8.0733816E-4,-1.774273E-2],"split_indices":[0,0,16,0,13,0,0],"split_type":[0,0,0,0,0,0,0],"sum_hessian":[6.1066995E0,2.370821E0,3.7358782E0,1.2139369E0,2.5219414E0,1.2286013E0,1.29334E0],"tree_param":{"num_deleted":"0","num_feature":"21","num_nodes":"7","size_leaf_vector":"1"}},{"base_weights":[6.2606834E-2,1.3621808E-2,-2.4727874E-1,2.8862716E-3,-3.825985E-1,-1.8121088E-2,3.3857783E-3],"categories":[],"categories_nodes":[],"categories_segments":[],"categories_sizes":[],"default_left":[0,0,0,0,0,0,0],"id":108,"left_children":[1,-1,3,-1,5,-1,-1],"loss_changes":[1.2426996E0,0E0,3.5155025E-1,0E0,6.510562E-1,0E0,0E0],"parents":[2147483647,0,0,2,2,4,4],"right_children":[2,-1,4,-1,6,-1,-1],"split_conditions":[1.773938E3,1.3621808E-2,3.6817216E-3,2.8862716E-3,1.49E5,-1.8121088E-2,3.3857783E-3],"split_indices":[0,0,16,0,4,0,0],"split_type":[0,0,0,0,0,0,0],"sum_hessian":[6.393176E0,2.4136736E0,3.9795024E0,1.2880471E0,2.6914554E0,1.557194E0,1.1342613E0],"tree_param":{"num_deleted":"0","num_feature":"21","num_nodes":"7","size_leaf_vector":"1"}},{"base_weights":[8.56789E-3,1.3781381E-2,-2.5422806E-1,-1.7696453E-2,1.44617E-1,-7.633568E-3,1.4306777E-2],"categories":[],"categories_nodes":[],"categories_segments":[],"categories_sizes":[],"default_left":[0,0,0,0,0,0,0],"id":109,"left_children":[1,-1,3,-1,5,-1,-1],"loss_changes":[1.1661407E0,0E0,1.0087032E0,0E0,8.3503E-1,0E0,0E0],"parents":[2147483647,0,0,2,2,4,4],"right_children":[2,-1,4,-1,6,-1,-1],"split_conditions":[1.733228E3,1.3781381E-2,1E0,-1.7696453E-2,1.2125E1,-7.633568E-3,1.4306777E-2],"split_indices":[0,0,19,0,9,0,0],"split_type":[0,0,0,0,0,0,0],"sum_hessian":[5.871656E0,1.6113629E0,4.260293E0,1.7932278E0,2.4670653E0,1.3336966E0,1.1333687E0],"tree_param":{"num_deleted":"0","num_feature":"21","num_nodes":"7","size_leaf_vector":"1"}},{"base_weights":[8.305851E-2,1.3643536E-2,-2.1514721E-1,5.3927153E-3,-3.7321314E-1,5.413371E-4,-1.5848242E-2],"categories":[],"categories_nodes":[],"categories_segments":[],"categories_sizes":[],"default_left":[0,0,0,0,0,0,0],"id":110,"left_children":[1,-1,3,-1,5,-1,-1],"loss_changes":[1.1385664E0,0E0,5.13528E-1,0E0,3.2182062E-1,0E0,0E0],"parents":[2147483647,0,0,2,2,4,4],"right_children":[2,-1,4,-1,6,-1,-1],"split_conditions":[1.773938E3,1.3643536E-2,4.7357683E-4,5.3927153E-3,1.7E-1,5.413371E-4,-1.5848242E-2],"split_indices":[0,0,16,0,13,0,0],"split_type":[0,0,0,0,0,0,0],"sum_hessian":[6.5058002E0,2.4284701E0,4.07733E0,1.0870465E0,2.9902837E0,1.3503314E0,1.6399524E0],"tree_param":{"num_deleted":"0","num_feature":"21","num_nodes":"7","size_leaf_vector":"1"}},{"base_weights":[3.2849807E-2,2.7453494E-1,-1.3204394E-2,3.979575E-1,-4.1872985E-3,-3.741892E-3,1.6973821E-2],"categories":[],"categories_nodes":[],"categories_segments":[],"categories_sizes":[],"default_left":[0,0,0,0,0,0,0],"id":111,"left_children":[1,3,-1,5,-1,-1,-1],"loss_changes":[1.1727825E0,4.495644E-1,0E0,6.3426167E-1,0E0,0E0,0E0],"parents":[2147483647,0,0,1,1,3,3],"right_children":[2,4,-1,6,-1,-1,-1],"split_conditions":[6.37E0,2.7878815E-2,-1.3204394E-2,-1.1808E1,-4.1872985E-3,-3.741892E-3,1.6973821E-2],"split_indices":[10,17,0,9,0,0,0],"split_type":[0,0,0,0,0,0,0],"sum_hessian":[6.1450553E0,4.622355E0,1.5227005E0,3.6211257E0,1.0012293E0,1.004992E0,2.6161337E0],"tree_param":{"num_deleted":"0","num_feature":"21","num_nodes":"7","size_leaf_vector":"1"}},{"base_weights":[-7.944686E-2,1.3330393E-2,-3.3974805E-1,-4.8458296E-1,3.7393891E-3,-1.9662991E-2,1.8497497E-3],"categories":[],"categories_nodes":[],"categories_segments":[],"categories_sizes":[],"default_left":[0,0,0,0,0,0,0],"id":112,"left_children":[1,-1,3,5,-1,-1,-1],"loss_changes":[1.3924301E0,0E0,5.564052E-1,5.7973254E-1,0E0,0E0,0E0],"parents":[2147483647,0,0,2,2,3,3],"right_children":[2,-1,4,6,-1,-1,-1],"split_conditions":[1.707368E3,1.3330393E-2,6.757E1,5.589172E-1,3.7393891E-3,-1.9662991E-2,1.8497497E-3],"split_indices":[0,0,9,15,0,0,0],"split_type":[0,0,0,0,0,0,0],"sum_hessian":[5.99814E0,1.5217968E0,4.476343E0,3.3458853E0,1.1304578E0,2.244173E0,1.1017122E0],"tree_param":{"num_deleted":"0","num_feature":"21","num_nodes":"7","size_leaf_vector":"1"}},{"base_weights":[1.687436E-3,1.4806844E-2,-2.615941E-1,-1.6662056E-2,-6.035287E-3,-3.421535E-1,1.4180064E-2,2.964189E-3,-1.6771272E-2],"categories":[],"categories_nodes":[],"categories_segments":[],"categories_sizes":[],"default_left":[0,0,0,0,0,0,0,0,0],"id":113,"left_children":[1,-1,3,-1,5,7,-1,-1,-1],"loss_changes":[1.3500639E0,0E0,5.037859E-1,0E0,1.2338384E0,5.39345E-1,0E0,0E0,0E0],"parents":[2147483647,0,0,2,2,4,4,5,5],"right_children":[2,-1,4,-1,6,8,-1,-1,-1],"split_conditions":[4.787E0,1.4806844E-2,-1.7262E1,-1.6662056E-2,1.5858E5,5.782129E-3,1.4180064E-2,2.964189E-3,-1.6771272E-2],"split_indices":[10,0,9,0,4,16,0,0,0],"split_type":[0,0,0,0,0,0,0,0,0],"sum_hessian":[6.4310966E0,1.6322846E0,4.7988114E0,1.1407543E0,3.6580575E0,2.4842575E0,1.1738E0,1.1780416E0,1.3062159E0],"tree_param":{"num_deleted":"0","num_feature":"21","num_nodes":"9","size_leaf_vector":"1"}},{"base_weights":[5.1141072E-2,1.3558912E-2,-1.819483E-1,-1.4263984E-2,6.755431E-2,-2.649686E-1,1.3679523E-2,1.6835072E-3,-1.2615951E-2],"categories":[],"categories_nodes":[],"categories_segments":[],"categories_sizes":[],"default_left":[0,0,0,0,0,0,0,0,0],"id":114,"left_children":[1,-1,3,-1,5,7,-1,-1,-1],"loss_changes":[9.2531717E-1,0E0,5.45767E-1,0E0,9.2688394E-1,2.5315264E-1,0E0,0E0,0E0],"parents":[2147483647,0,0,2,2,4,4,5,5],"right_children":[2,-1,4,-1,6,8,-1,-1,-1],"split_conditions":[1.733228E3,1.3558912E-2,-1.7262E1,-1.4263984E-2,2.5E-1,1.8854445E-2,1.3679523E-2,1.6835072E-3,-1.2615951E-2],"split_indices":[0,0,9,0,14,17,0,0,0],"split_type":[0,0,0,0,0,0,0,0,0],"sum_hessian":[6.1437373E0,1.5685002E0,4.5752373E0,1.2699459E0,3.3052912E0,2.123296E0,1.1819952E0,1.1102494E0,1.0130465E0],"tree_param":{"num_deleted":"0","num_feature":"21","num_nodes":"9","size_leaf_vector":"1"}},{"base_weights":[8.110084E-2,-1.0030742E-2,2.8910074E-1,-1.1289427E-1,1.7826462E-2,8.006335E-3,-1.3253385E-2],"categories":[],"categories_nodes":[],"categories_segments":[],"categories_sizes":[],"default_left":[0,0,0,0,0,0,0],"id":115,"left_children":[1,-1,3,5,-1,-1,-1],"loss_changes":[8.83789E-1,0E0,9.1878515E-1,7.9048395E-1,0E0,0E0,0E0],"parents":[2147483647,0,0,2,2,3,3],"right_children":[2,-1,4,6,-1,-1,-1],"split_conditions":[-1.7262E1,-1.0030742E-2,1.49E5,1.0035251E-2,1.7826462E-2,8.006335E-3,-1.3253385E-2],"split_indices":[9,0,4,16,0,0,0],"split_type":[0,0,0,0,0,0,0],"sum_hessian":[5.9900403E0,1.5930669E0,4.3969736E0,2.4409537E0,1.95602E0,1.3078371E0,1.1331165E0],"tree_param":{"num_deleted":"0","num_feature":"21","num_nodes":"7","size_leaf_vector":"1"}},{"base_weights":[1.7772712E-1,3.4549668E-1,-9.032156E-3,-5.987205E-3,5.343502E-1,2.998374E-3,1.8695857E-2],"categories":[],"categories_nodes":[],"categories_segments":[],"categories_sizes":[],"default_left":[0,0,0,0,0,0,0],"id":116,"left_children":[1,3,-1,-1,5,-1,-1],"loss_changes":[8.185486E-1,8.885018E-1,0E0,0E0,8.443475E-2,0E0,0E0],"parents":[2147483647,0,0,1,1,4,4],"right_children":[2,4,-1,-1,6,-1,-1],"split_conditions":[6.41E0,-1.7262E1,-9.032156E-3,-5.987205E-3,1.2125E1,2.998374E-3,1.8695857E-2],"split_indices":[10,9,0,0,9,0,0],"split_type":[0,0,0,0,0,0,0],"sum_hessian":[5.600222E0,4.559432E0,1.0407901E0,1.1440221E0,3.4154098E0,1.3015281E0,2.1138818E0],"tree_param":{"num_deleted":"0","num_feature":"21","num_nodes":"7","size_leaf_vector":"1"}},{"base_weights":[1.7474943E-1,-8.70217E-3,3.9137158E-1,1.622294E-2,-2.6601157E-3],"categories":[],"categories_nodes":[],"categories_segments":[],"categories_sizes":[],"default_left":[0,0,0,0,0],"id":117,"left_children":[1,-1,3,-1,-1],"loss_changes":[9.318752E-1,0E0,4.9937248E-1,0E0,0E0],"parents":[2147483647,0,0,2,2],"right_children":[2,-1,4,-1,-1],"split_conditions":[-1.7262E1,-8.70217E-3,4E0,1.622294E-2,-2.6601157E-3],"split_indices":[9,0,12,0,0],"split_type":[0,0,0,0,0],"sum_hessian":[4.9998837E0,1.3738256E0,3.626058E0,2.5724895E0,1.0535686E0],"tree_param":{"num_deleted":"0","num_feature":"21","num_nodes":"5","size_leaf_vector":"1"}},{"base_weights":[4.9778227E-2,1.4440537E-2,-1.9733536E-1,5.867313E-3,-3.493204E-1,-1.6216416E-2,-5.9271503E-2,4.251095E-3,-7.2891223E-3],"categories":[],"categories_nodes":[],"categories_segments":[],"categories_sizes":[],"default_left":[0,0,0,0,0,0,0,0,0],"id":118,"left_children":[1,-1,3,-1,5,-1,7,-1,-1],"loss_changes":[1.062055E0,0E0,5.318634E-1,0E0,2.4043441E-1,0E0,2.3232651E-1,0E0,0E0],"parents":[2147483647,0,0,2,2,4,4,6,6],"right_children":[2,-1,4,-1,6,-1,8,-1,-1],"split_conditions":[4.787E0,1.4440537E-2,1.773458E3,5.867313E-3,1.2125E1,-1.6216416E-2,1.811205E3,4.251095E-3,-7.2891223E-3],"split_indices":[10,0,0,0,9,0,3,0,0],"split_type":[0,0,0,0,0,0,0,0,0],"sum_hessian":[6.177213E0,1.5588903E0,4.618323E0,1.1281606E0,3.4901624E0,1.0624288E0,2.4277337E0,1.3776993E0,1.0500344E0],"tree_param":{"num_deleted":"0","num_feature":"21","num_nodes":"9","size_leaf_vector":"1"}},{"base_weights":[-5.2427385E-2,1.43543035E-2,-3.26493E-1,-1.7181596E-2,9.665578E-3,6.3879117E-3,-7.212246E-3],"categories":[],"categories_nodes":[],"categories_segments":[],"categories_sizes":[],"default_left":[0,0,0,0,0,0,0],"id":119,"left_children":[1,-1,3,-1,5,-1,-1],"loss_changes":[1.4809718E0,0E0,5.478866E-1,0E0,3.4173563E-1,0E0,0E0],"parents":[2147483647,0,0,2,2,4,4],"right_children":[2,-1,4,-1,6,-1,-1],"split_conditions":[4.787E0,1.43543035E-2,1.2125E1,-1.7181596E-2,1.811205E3,6.3879117E-3,-7.212246E-3],"split_indices":[10,0,9,0,3,0,0],"split_type":[0,0,0,0,0,0,0],"sum_hessian":[6.0310144E0,1.545488E0,4.485526E0,1.776702E0,2.7088242E0,1.6581264E0,1.0506979E0],"tree_param":{"num_deleted":"0","num_feature":"21","num_nodes":"7","size_leaf_vector":"1"}},{"base_weights":[2.3860088E-2,1.427497E-2,-2.4214368E-1,3.2303466E-3,-3.9709556E-1,-1.5808135E-2,-8.783762E-4],"categories":[],"categories_nodes":[],"categories_segments":[],"categories_sizes":[],"default_left":[0,0,0,0,0,0,0],"id":120,"left_children":[1,-1,3,-1,5,-1,-1],"loss_changes":[1.1582799E0,0E0,4.2070714E-1,0E0,1.9418436E-1,0E0,0E0],"parents":[2147483647,0,0,2,2,4,4],"right_children":[2,-1,4,-1,6,-1,-1],"split_conditions":[4.787E0,1.427497E-2,1.773458E3,3.2303466E-3,1.6213296E-2,-1.5808135E-2,-8.783762E-4],"split_indices":[10,0,0,0,16,0,0],"split_type":[0,0,0,0,0,0,0],"sum_hessian":[5.7174473E0,1.5337633E0,4.183684E0,1.471584E0,2.7121E0,1.3650155E0,1.3470844E0],"tree_param":{"num_deleted":"0","num_feature":"21","num_nodes":"7","size_leaf_vector":"1"}},{"base_weights":[1.8170955E-2,1.3043006E-2,-2.1247663E-1,-1.6578093E-2,6.2063225E-2,1.3705955E-2,-2.603001E-1,-1.1091444E-2,6.6023256E-4],"categories":[],"categories_nodes":[],"categories_segments":[],"categories_sizes":[],"default_left":[0,0,0,0,0,0,0,0,0],"id":121,"left_children":[1,-1,3,-1,5,-1,7,-1,-1],"loss_changes":[9.4313973E-1,0E0,6.684122E-1,0E0,9.1905963E-1,0E0,1.4664406E-1,0E0,0E0],"parents":[2147483647,0,0,2,2,4,4,6,6],"right_children":[2,-1,4,-1,6,-1,8,-1,-1],"split_conditions":[1.733228E3,1.3043006E-2,-8.968835E-3,-1.6578093E-2,3.6817216E-3,1.3705955E-2,1.6959226E-2,-1.1091444E-2,6.6023256E-4],"split_indices":[0,0,18,0,16,0,16,0,0],"split_type":[0,0,0,0,0,0,0,0,0],"sum_hessian":[5.892694E0,1.4691488E0,4.4235454E0,1.0710087E0,3.3525367E0,1.1318606E0,2.220676E0,1.1541342E0,1.0665419E0],"tree_param":{"num_deleted":"0","num_feature":"21","num_nodes":"9","size_leaf_vector":"1"}},{"base_weights":[-6.660569E-3,1.41081745E-2,-2.534238E-1,-1.6432958E-2,-4.025657E-3,1.3942264E-2,-3.3881125E-1,-1.9752212E-2,6.9847954E-3],"categories":[],"categories_nodes":[],"categories_segments":[],"categories_sizes":[],"default_left":[0,0,0,0,0,0,0,0,0],"id":122,"left_children":[1,-1,3,-1,5,-1,7,-1,-1],"loss_changes":[1.2056822E0,0E0,4.886253E-1,0E0,1.2016996E0,0E0,1.1201353E0,0E0,0E0],"parents":[2147483647,0,0,2,2,4,4,6,6],"right_children":[2,-1,4,-1,6,-1,8,-1,-1],"split_conditions":[4.787E0,1.41081745E-2,-1.7262E1,-1.6432958E-2,3.6817216E-3,1.3942264E-2,1.49E5,-1.9752212E-2,6.9847954E-3],"split_indices":[10,0,9,0,16,0,4,0,0],